SVM-light Version V6.02
0 # kernel type
3 # kernel parameter -d 
1 # kernel parameter -g 
1 # kernel parameter -s 
1 # kernel parameter -r 
empty# kernel parameter -u 
25186 # highest feature index 
200 # number of training documents 
120 # number of support vectors plus 1 
0.031589501 # threshold b, each following line is a SV (starting with alpha*y)
-0.47181829236639599711722325992014 288:0.129512 290:0.052299999 298:0.052299999 428:0.052299999 698:0.052299999 809:0.052299999 824:0.052299999 1053:0.082815997 1174:0.052299999 1269:0.052299999 1291:0.082815997 1336:0.082815997 1497:0.052299999 1651:0.052299999 1827:0.082815997 2136:0.052299999 2355:0.052299999 2460:0.052299999 2567:0.052299999 2810:0.052299999 2837:0.052299999 3110:0.052299999 3136:0.082815997 3145:0.052299999 3315:0.097603999 3321:0.052299999 3400:0.106535 3404:0.052299999 3414:0.052299999 3465:0.052299999 3840:0.052299999 3954:0.052299999 3993:0.052299999 3994:0.052299999 4037:0.106535 4290:0.082815997 4414:0.052299999 4665:0.052299999 4750:0.052299999 4840:0.052299999 4929:0.052299999 5060:0.052299999 5117:0.052299999 5126:0.082815997 5268:0.052299999 5324:0.052299999 5813:0.052299999 5824:0.052299999 5869:0.097603999 5910:0.052299999 5974:0.052299999 6000:0.082815997 6202:0.052299999 6212:0.052299999 6755:0.052299999 6848:0.052299999 6886:0.052299999 7141:0.052299999 7395:0.052299999 7404:0.052299999 7411:0.052299999 7581:0.052299999 7896:0.052299999 8192:0.052299999 8318:0.052299999 8414:0.052299999 8427:0.082815997 8442:0.052299999 8506:0.052299999 8749:0.052299999 8815:0.106535 9131:0.052299999 9277:0.082815997 9348:0.097603999 9374:0.112523 9498:0.052299999 9514:0.052299999 9821:0.082815997 9843:0.052299999 10062:0.082815997 10132:0.052299999 10136:0.052299999 10502:0.097603999 10524:0.052299999 10605:0.052299999 10617:0.052299999 10774:0.052299999 10875:0.052299999 10932:0.097603999 10933:0.052299999 11002:0.052299999 11059:0.052299999 11089:0.052299999 11094:0.052299999 11101:0.052299999 11233:0.052299999 11248:0.052299999 11439:0.082815997 11481:0.052299999 11573:0.052299999 11662:0.052299999 11915:0.052299999 11995:0.082815997 12074:0.052299999 12242:0.052299999 12342:0.052299999 12343:0.052299999 12508:0.052299999 12523:0.052299999 12702:0.082815997 12780:0.052299999 12986:0.052299999 13026:0.052299999 13034:0.052299999 13225:0.052299999 13287:0.052299999 13380:0.052299999 13442:0.082815997 13453:0.052299999 13551:0.052299999 13675:0.052299999 13697:0.082815997 13744:0.082815997 13787:0.082815997 13792:0.052299999 13989:0.052299999 14172:0.082815997 14268:0.052299999 14298:0.052299999 14391:0.052299999 14402:0.052299999 14602:0.052299999 14787:0.052299999 14888:0.052299999 15019:0.082815997 15177:0.052299999 15236:0.052299999 15422:0.052299999 15674:0.052299999 15692:0.052299999 15863:0.052299999 15878:0.052299999 15889:0.082815997 16242:0.052299999 16466:0.097603999 16576:0.052299999 16672:0.052299999 16745:0.052299999 16952:0.052299999 16993:0.052299999 17059:0.052299999 17148:0.052299999 17296:0.124224 17359:0.082815997 17490:0.052299999 17557:0.082815997 17646:0.082815997 17649:0.124224 17705:0.052299999 17722:0.052299999 17733:0.052299999 17773:0.052299999 17837:0.082815997 17874:0.097603999 17927:0.116789 18013:0.052299999 18027:0.052299999 18082:0.097603999 18154:0.052299999 18327:0.082815997 18425:0.082815997 18458:0.082815997 18623:0.052299999 19121:0.052299999 19236:0.082815997 19272:0.052299999 19308:0.052299999 19375:0.052299999 19434:0.097603999 20028:0.052299999 20079:0.082815997 20609:0.082815997 20649:0.082815997 20682:0.097603999 20740:0.052299999 20757:0.052299999 20777:0.052299999 20813:0.052299999 20967:0.12985501 20983:0.052299999 21136:0.052299999 21270:0.052299999 21323:0.052299999 21340:0.052299999 21642:0.052299999 21839:0.052299999 21954:0.052299999 22056:0.082815997 22248:0.097603999 22306:0.052299999 22400:0.052299999 22428:0.052299999 22546:0.129512 22547:0.052299999 22655:0.097603999 22665:0.052299999 22745:0.052299999 22908:0.052299999 22993:0.052299999 23097:0.052299999 23177:0.052299999 23194:0.052299999 23220:0.052299999 23308:0.052299999 23359:0.052299999 23396:0.106535 23503:0.052299999 23589:0.124224 23597:0.052299999 23740:0.097603999 24247:0.097603999 24320:0.052299999 24494:0.052299999 24584:0.052299999 24601:0.082815997 24649:0.082815997 24673:0.052299999 #
0.28285083739408389824632195086451 288:0.15957201 290:0.147367 333:0.080629997 535:0.080629997 539:0.080629997 1133:0.181743 1336:0.12620901 1375:0.080629997 2466:0.12620901 2810:0.080629997 2837:0.080629997 2987:0.080629997 3078:0.12620901 3315:0.12620901 3760:0.080629997 3851:0.080629997 4066:0.080629997 4092:0.080629997 4728:0.080629997 4860:0.12620901 4909:0.080629997 5124:0.080629997 5126:0.147367 5191:0.12620901 5563:0.080629997 5622:0.080629997 5865:0.080629997 6398:0.080629997 6470:0.147367 6796:0.080629997 6817:0.080629997 6819:0.080629997 6848:0.080629997 7822:0.080629997 8215:0.15957201 8783:0.080629997 9027:0.080629997 9191:0.080629997 9201:0.080629997 9270:0.080629997 9773:0.080629997 10456:0.080629997 10875:0.080629997 11075:0.16734999 11366:0.080629997 11367:0.080629997 12135:0.080629997 12327:0.080629997 12848:0.080629997 13025:0.080629997 13162:0.080629997 13296:0.080629997 13336:0.080629997 13397:0.080629997 13874:0.080629997 14130:0.080629997 14268:0.080629997 14316:0.080629997 14390:0.080629997 14683:0.080629997 15218:0.080629997 15503:0.080629997 15959:0.080629997 16405:0.15957201 16432:0.080629997 16993:0.080629997 17027:0.080629997 17036:0.080629997 17273:0.080629997 17874:0.12620901 17998:0.12620901 18560:0.080629997 18753:0.080629997 18873:0.080629997 18899:0.182548 19029:0.080629997 19565:0.080629997 19675:0.080629997 19928:0.12620901 20237:0.080629997 20254:0.080629997 20270:0.080629997 20304:0.080629997 20350:0.080629997 20471:0.080629997 21209:0.080629997 21388:0.080629997 21495:0.12620901 21533:0.080629997 21704:0.12620901 21839:0.080629997 22076:0.080629997 22547:0.080629997 22594:0.147367 22812:0.080629997 22993:0.12620901 22997:0.080629997 23177:0.080629997 23237:0.080629997 23319:0.12620901 24255:0.080629997 24878:0.080629997 25015:0.147367 #
-0.30103079795998011203295163795701 288:0.181081 290:0.100396 560:0.100396 772:0.100396 860:0.100396 1269:0.100396 1541:0.20362 1730:0.100396 2355:0.100396 2837:0.100396 3988:0.100396 3994:0.100396 4629:0.100396 5126:0.19506399 5215:0.181081 5891:0.100396 6222:0.20362 6684:0.15601 8074:0.100396 8788:0.100396 8994:0.15601 9348:0.100396 9824:0.181081 9859:0.100396 9881:0.100396 10116:0.100396 10136:0.100396 10188:0.100396 10875:0.100396 11336:0.15601 12245:0.100396 12527:0.100396 12894:0.15601 13202:0.15601 13380:0.100396 14172:0.209086 15124:0.100396 17399:0.181081 17538:0.15601 17565:0.20362 17714:0.100396 17837:0.181081 17874:0.100396 18256:0.100396 18469:0.181081 18560:0.100396 20828:0.100396 20967:0.209086 20978:0.15601 21333:0.100396 21966:0.100396 22655:0.100396 23756:0.100396 24213:0.100396 24403:0.100396 24553:0.100396 24878:0.100396 #
-0.40303161463711700829293249626062 15:0.054485001 16:0.086180001 78:0.054485001 276:0.086180001 288:0.13015801 289:0.086180001 293:0.086180001 526:0.086180001 539:0.086180001 657:0.116826 658:0.054485001 739:0.110683 904:0.054485001 1208:0.086180001 1219:0.054485001 1336:0.054485001 1449:0.054485001 1586:0.054485001 2136:0.054485001 2205:0.086180001 2355:0.054485001 2486:0.054485001 2731:0.054485001 2749:0.054485001 2782:0.10148 2837:0.054485001 3136:0.054485001 3140:0.054485001 3647:0.054485001 3694:0.054485001 3752:0.054485001 3988:0.13219599 4178:0.054485001 4287:0.054485001 4290:0.086180001 4399:0.054485001 4430:0.054485001 4629:0.054485001 4760:0.054485001 4983:0.054485001 5103:0.054485001 5117:0.054485001 5191:0.126828 5260:0.054485001 5466:0.054485001 5485:0.054485001 5491:0.054485001 5813:0.054485001 5851:0.054485001 6082:0.054485001 6143:0.054485001 6359:0.086180001 6378:0.086180001 6398:0.116826 6425:0.054485001 6505:0.116826 6601:0.054485001 6684:0.121184 6755:0.086180001 6816:0.054485001 6831:0.054485001 6848:0.054485001 7411:0.054485001 7444:0.054485001 7741:0.086180001 7970:0.054485001 8143:0.054485001 8251:0.054485001 8347:0.116826 8442:0.054485001 8845:0.054485001 8904:0.054485001 9163:0.054485001 9270:0.10148 9277:0.054485001 9336:0.054485001 9348:0.054485001 9757:0.086180001 9881:0.054485001 9891:0.054485001 10071:0.054485001 10091:0.054485001 10136:0.054485001 10298:0.086180001 10539:0.086180001 10573:0.054485001 10617:0.116826 10742:0.10148 10774:0.054485001 10846:0.054485001 10875:0.054485001 11004:0.054485001 11366:0.054485001 11424:0.054485001 11439:0.054485001 11900:0.054485001 11915:0.086180001 11995:0.054485001 12134:0.10148 12237:0.054485001 12624:0.110683 12702:0.10148 12739:0.054485001 12812:0.054485001 12825:0.054485001 12980:0.054485001 13028:0.054485001 13150:0.054485001 13296:0.086180001 13336:0.110683 13829:0.086180001 13855:0.086180001 13856:0.086180001 13888:0.054485001 13909:0.086180001 13989:0.054485001 14495:0.10148 14683:0.121184 14805:0.116826 14821:0.054485001 14833:0.054485001 14960:0.054485001 14969:0.086180001 15035:0.086180001 15189:0.054485001 15312:0.054485001 15334:0.054485001 15674:0.054485001 16325:0.054485001 16466:0.054485001 16470:0.110683 16859:0.124397 16880:0.086180001 16993:0.054485001 17115:0.054485001 17213:0.054485001 17273:0.054485001 17332:0.054485001 17538:0.086180001 17557:0.086180001 17646:0.054485001 17858:0.054485001 17874:0.054485001 18208:0.054485001 18264:0.054485001 18342:0.054485001 19186:0.054485001 19368:0.054485001 19540:0.054485001 19552:0.054485001 19662:0.054485001 19780:0.054485001 20001:0.054485001 20177:0.054485001 20298:0.086180001 20309:0.054485001 20609:0.054485001 20664:0.054485001 20682:0.054485001 20817:0.054485001 20949:0.054485001 20967:0.124397 21355:0.054485001 21421:0.054485001 21459:0.10148 21725:0.054485001 21930:0.054485001 21979:0.054485001 22283:0.054485001 22287:0.086180001 22306:0.054485001 22315:0.054485001 22358:0.054485001 22508:0.054485001 22665:0.086180001 22861:0.054485001 22993:0.054485001 23177:0.054485001 23194:0.054485001 23294:0.128701 23503:0.054485001 23740:0.054485001 24091:0.054485001 24156:0.054485001 24247:0.054485001 24430:0.054485001 24468:0.054485001 24569:0.054485001 24601:0.126828 24615:0.054485001 24643:0.10148 24649:0.086180001 24747:0.110683 25023:0.054485001 #
0.27292995061204172735358497448033 42:0.156121 288:0.19520301 771:0.156121 824:0.100468 889:0.100468 1133:0.19520301 1269:0.18121 2330:0.100468 2772:0.100468 4152:0.100468 4161:0.100468 5016:0.100468 5191:0.156121 5274:0.100468 5622:0.100468 6211:0.100468 6684:0.18121 6919:0.100468 6956:0.100468 7510:0.209235 7525:0.100468 7840:0.100468 8676:0.19520301 8783:0.100468 9555:0.19520301 10003:0.100468 10500:0.156121 11122:0.100468 11366:0.100468 11729:0.156121 12527:0.100468 13354:0.100468 13581:0.19520301 13855:0.20376401 14281:0.100468 14590:0.100468 15218:0.156121 15820:0.100468 15878:0.100468 16993:0.18121 17557:0.100468 17874:0.18121 17881:0.100468 18048:0.100468 18391:0.156121 18453:0.100468 19272:0.100468 19787:0.100468 19919:0.100468 20732:0.100468 20949:0.100468 22263:0.100468 22428:0.100468 22655:0.156121 23740:0.100468 23956:0.156121 24878:0.100468 #
0.99999990903834856670329145345022 42:0.048533998 81:0.048533998 276:0.048533998 288:0.121856 290:0.048533998 331:0.048533998 333:0.048533998 447:0.048533998 539:0.048533998 623:0.048533998 657:0.048533998 701:0.048533998 778:0.099229999 824:0.048533998 1053:0.048533998 1094:0.09082 1133:0.11873 1226:0.048533998 1246:0.048533998 1269:0.099229999 1291:0.048533998 1313:0.048533998 1497:0.048533998 1651:0.048533998 1812:0.099229999 1822:0.09082 1823:0.048533998 1863:0.048533998 2403:0.048533998 2450:0.048533998 2520:0.048533998 2666:0.048533998 2712:0.048533998 2731:0.048533998 2749:0.048533998 2782:0.076967001 2793:0.048533998 2837:0.076967001 2948:0.048533998 3078:0.048533998 3110:0.076967001 3142:0.048533998 3197:0.048533998 3380:0.048533998 3407:0.076967001 3465:0.076967001 3471:0.076967001 3622:0.048533998 3838:0.09082 3845:0.048533998 3885:0.048533998 3993:0.048533998 3994:0.048533998 4071:0.048533998 4119:0.048533998 4144:0.048533998 4224:0.048533998 4290:0.099229999 4421:0.048533998 4541:0.048533998 4728:0.076967001 4948:0.048533998 5126:0.108965 5191:0.09082 5274:0.048533998 5337:0.048533998 5428:0.048533998 5469:0.048533998 5664:0.048533998 5740:0.048533998 5869:0.048533998 6043:0.048533998 6044:0.048533998 6074:0.048533998 6143:0.099229999 6211:0.048533998 6212:0.048533998 6306:0.048533998 6359:0.048533998 6398:0.108965 6470:0.099229999 6482:0.048533998 6505:0.048533998 6684:0.099229999 6687:0.048533998 6755:0.076967001 6816:0.076967001 6830:0.076967001 6956:0.048533998 7287:0.048533998 7374:0.076967001 7823:0.048533998 7921:0.048533998 7989:0.048533998 8187:0.048533998 8215:0.09082 8470:0.048533998 8614:0.076967001 8803:0.076967001 8815:0.048533998 9039:0.048533998 9201:0.048533998 9338:0.048533998 9348:0.076967001 9446:0.048533998 9466:0.09082 9498:0.048533998 9757:0.048533998 9859:0.048533998 9881:0.048533998 9993:0.048533998 10003:0.048533998 10049:0.048533998 10091:0.048533998 10164:0.048533998 10500:0.1049 10514:0.048533998 10617:0.048533998 10749:0.048533998 10932:0.048533998 10960:0.076967001 10970:0.048533998 11004:0.076967001 11040:0.048533998 11085:0.048533998 11122:0.09082 11248:0.048533998 11268:0.076967001 11367:0.048533998 11439:0.048533998 11685:0.048533998 11729:0.048533998 11829:0.048533998 11874:0.048533998 11995:0.048533998 12134:0.048533998 12223:0.048533998 12315:0.048533998 12324:0.076967001 12662:0.048533998 12702:0.048533998 12825:0.09082 12980:0.048533998 13162:0.048533998 13380:0.048533998 13388:0.076967001 14171:0.048533998 14268:0.048533998 14451:0.048533998 14535:0.048533998 14609:0.048533998 14821:0.09082 14969:0.09082 15218:0.048533998 15236:0.076967001 15372:0.048533998 15517:0.048533998 15684:0.076967001 15820:0.121856 15878:0.048533998 15928:0.048533998 15937:0.048533998 15959:0.076967001 16013:0.048533998 16183:0.048533998 16227:0.076967001 16357:0.048533998 16377:0.048533998 16426:0.048533998 16432:0.048533998 16496:0.076967001 16709:0.048533998 16722:0.099229999 16776:0.048533998 16846:0.048533998 17235:0.048533998 17500:0.09082 17538:0.048533998 17557:0.120399 17649:0.048533998 17705:0.048533998 17837:0.048533998 17874:0.099229999 17881:0.048533998 17892:0.048533998 17927:0.048533998 18069:0.048533998 18127:0.048533998 18154:0.1049 18238:0.09082 18270:0.099229999 18324:0.048533998 18347:0.048533998 18453:0.076967001 18474:0.048533998 18560:0.048533998 18792:0.048533998 18873:0.076967001 18899:0.048533998 18962:0.048533998 18999:0.048533998 19181:0.048533998 19238:0.076967001 19338:0.048533998 19341:0.048533998 19434:0.048533998 19737:0.076967001 19780:0.048533998 19787:0.076967001 19919:0.048533998 20001:0.048533998 20017:0.048533998 20079:0.048533998 20177:0.048533998 20197:0.048533998 20251:0.048533998 20304:0.048533998 20409:0.048533998 20649:0.048533998 20663:0.048533998 20709:0.048533998 20740:0.048533998 21282:0.048533998 21333:0.048533998 21543:0.048533998 21800:0.099229999 21825:0.048533998 21893:0.048533998 21967:0.099229999 21975:0.048533998 21982:0.048533998 22180:0.076967001 22248:0.048533998 22263:0.1049 22312:0.048533998 22313:0.048533998 22428:0.048533998 22497:0.076967001 22589:0.076967001 22594:0.048533998 22641:0.076967001 22655:0.076967001 22747:0.048533998 22838:0.048533998 22993:0.048533998 23044:0.048533998 23068:0.048533998 23129:0.048533998 23240:0.048533998 23512:0.048533998 23586:0.048533998 23597:0.048533998 23670:0.048533998 23688:0.048533998 23728:0.048533998 23740:0.048533998 24197:0.048533998 24247:0.048533998 24403:0.048533998 24553:0.048533998 24573:0.048533998 24601:0.048533998 24878:0.048533998 24922:0.048533998 25066:0.048533998 #
0.23990053169456632131684159503493 288:0.19191299 535:0.25753599 1133:0.19191299 1730:0.19191299 2513:0.22143701 4540:0.22143701 4983:0.124384 5191:0.22143701 6378:0.22143701 6886:0.124384 11306:0.124384 12733:0.124384 13210:0.124384 13339:0.19191299 14089:0.124384 15380:0.22143701 15399:0.19191299 15820:0.124384 16409:0.22143701 16993:0.124384 17515:0.124384 18284:0.19191299 18391:0.124384 18425:0.19191299 19777:0.124384 20232:0.124384 20472:0.25695601 22178:0.19191299 22594:0.19191299 23448:0.237298 #
0.51554928570531832754397782991873 288:0.15128499 333:0.119319 556:0.076086998 657:0.076086998 698:0.076086998 739:0.076086998 771:0.076086998 1133:0.119319 1208:0.076086998 1269:0.076086998 2186:0.076086998 2355:0.076086998 2731:0.076086998 2778:0.076086998 3084:0.076086998 3315:0.119319 3693:0.076086998 3994:0.076086998 4105:0.076086998 4471:0.076086998 4562:0.076086998 4728:0.16758899 4948:0.076086998 4983:0.076086998 5191:0.139532 5252:0.139532 5813:0.076086998 6043:0.076086998 6103:0.076086998 6452:0.139532 6470:0.076086998 6505:0.076086998 6684:0.076086998 6816:0.15128499 6817:0.076086998 7151:0.076086998 7617:0.076086998 7621:0.076086998 7691:0.076086998 8802:0.076086998 8803:0.076086998 9000:0.173315 9131:0.076086998 9270:0.076086998 9348:0.076086998 9368:0.076086998 9446:0.076086998 9555:0.076086998 9773:0.076086998 9905:0.119319 10091:0.076086998 10116:0.076086998 10531:0.076086998 10583:0.15128499 10843:0.076086998 10993:0.076086998 11009:0.076086998 11089:0.076086998 11367:0.15128499 11568:0.076086998 11946:0.076086998 12134:0.076086998 12825:0.076086998 13296:0.163982 13551:0.076086998 15959:0.163982 15986:0.076086998 16059:0.076086998 16978:0.076086998 17104:0.076086998 17236:0.076086998 17287:0.076086998 17351:0.076086998 17538:0.15884399 17874:0.076086998 18082:0.076086998 18458:0.15128499 18560:0.163982 18835:0.076086998 18873:0.076086998 19186:0.076086998 19272:0.076086998 19553:0.076086998 19662:0.119319 20298:0.076086998 20400:0.076086998 20609:0.119319 20649:0.076086998 20663:0.076086998 20682:0.119319 20972:0.076086998 21129:0.076086998 21543:0.119319 21611:0.076086998 22156:0.119319 22306:0.076086998 22594:0.15128499 22641:0.076086998 22655:0.076086998 22745:0.076086998 22993:0.119319 23194:0.076086998 23597:0.076086998 24197:0.076086998 24403:0.076086998 24517:0.076086998 24569:0.076086998 24602:0.076086998 24794:0.076086998 24878:0.076086998 25172:0.076086998 #
-0.26697731533491109168210186908254 113:0.052781999 275:0.052781999 276:0.052781999 288:0.123355 290:0.052781999 492:0.098462999 524:0.052781999 739:0.123355 772:0.083559997 824:0.052781999 1041:0.052781999 1269:0.052781999 1339:0.083559997 1465:0.052781999 1763:0.052781999 1823:0.052781999 1863:0.052781999 2205:0.052781999 2231:0.052781999 2347:0.052781999 2749:0.052781999 2759:0.083559997 2778:0.113479 3095:0.052781999 3098:0.052781999 3320:0.052781999 3407:0.052781999 3471:0.052781999 3536:0.083559997 3619:0.052781999 3649:0.052781999 3693:0.052781999 3817:0.052781999 3845:0.083559997 3988:0.113479 4095:0.052781999 4122:0.052781999 4210:0.052781999 4359:0.052781999 4410:0.052781999 4562:0.052781999 4716:0.052781999 4831:0.052781999 5070:0.052781999 5117:0.083559997 5191:0.12784199 5260:0.083559997 5503:0.083559997 5622:0.052781999 5647:0.052781999 5813:0.052781999 5816:0.052781999 5984:0.052781999 6223:0.052781999 6372:0.052781999 6398:0.052781999 6505:0.052781999 6654:0.052781999 6684:0.098462999 6735:0.052781999 6744:0.052781999 6855:0.052781999 6947:0.052781999 7345:0.083559997 7404:0.052781999 7411:0.052781999 7444:0.052781999 7555:0.052781999 8054:0.052781999 8074:0.052781999 8187:0.052781999 8222:0.052781999 8347:0.052781999 8410:0.052781999 8476:0.052781999 8490:0.052781999 8589:0.052781999 8895:0.113479 9025:0.052781999 9045:0.052781999 9099:0.098462999 9270:0.083559997 9348:0.083559997 9368:0.098462999 9821:0.052781999 9881:0.052781999 10160:0.052781999 10213:0.052781999 10374:0.052781999 10396:0.083559997 10438:0.098462999 10843:0.107455 11101:0.052781999 11227:0.052781999 11439:0.052781999 11441:0.052781999 11517:0.052781999 11863:0.052781999 11995:0.052781999 12182:0.083559997 12237:0.052781999 12523:0.052781999 12731:0.113479 12812:0.052781999 12848:0.052781999 12927:0.052781999 12970:0.052781999 12985:0.052781999 13282:0.052781999 13336:0.083559997 13346:0.083559997 13373:0.052781999 13380:0.083559997 13388:0.052781999 13581:0.098462999 13601:0.098462999 13888:0.052781999 14064:0.052781999 14079:0.052781999 14172:0.052781999 14232:0.052781999 14268:0.052781999 14316:0.052781999 14805:0.107455 14969:0.052781999 15035:0.098462999 15166:0.052781999 15218:0.098462999 15342:0.052781999 15422:0.113479 15514:0.052781999 15685:0.052781999 15790:0.083559997 16183:0.052781999 16277:0.052781999 16470:0.117767 16604:0.052781999 17281:0.052781999 17296:0.083559997 17530:0.052781999 17538:0.052781999 17681:0.107455 17705:0.052781999 17842:0.052781999 17874:0.117768 17950:0.083559997 17997:0.052781999 18119:0.052781999 18154:0.098462999 18204:0.052781999 18212:0.052781999 18453:0.052781999 18484:0.052781999 18501:0.083559997 18560:0.052781999 18815:0.052781999 18879:0.052781999 18962:0.052781999 19368:0.052781999 19375:0.125223 19550:0.052781999 19609:0.052781999 19667:0.052781999 19737:0.052781999 19762:0.052781999 19792:0.083559997 20091:0.083559997 20189:0.052781999 20350:0.052781999 20541:0.052781999 20813:0.052781999 20967:0.131247 21025:0.052781999 21270:0.083559997 21459:0.107455 21642:0.052781999 21757:0.107455 21893:0.098462999 21931:0.083559997 21967:0.052781999 22315:0.083559997 22326:0.052781999 22358:0.098462999 22421:0.052781999 22460:0.083559997 22594:0.052781999 22641:0.083559997 22655:0.117767 22665:0.052781999 22747:0.083559997 22851:0.052781999 22856:0.117767 22965:0.052781999 22993:0.052781999 23012:0.052781999 23342:0.052781999 23597:0.083559997 23829:0.052781999 24005:0.052781999 24059:0.052781999 24174:0.083559997 24247:0.052781999 24474:0.083559997 24661:0.052781999 25130:0.052781999 25152:0.107455 #
0.3605705093503503433360890539916 288:0.179216 739:0.091205001 771:0.142359 1133:0.179216 1375:0.091205001 1449:0.091205001 1497:0.091205001 1825:0.091205001 2373:0.091205001 3398:0.091205001 3851:0.091205001 4007:0.091205001 4161:0.091205001 4290:0.091205001 4858:0.091205001 5191:0.187613 5337:0.091205001 5490:0.091205001 5503:0.091205001 5813:0.091205001 6398:0.179216 6470:0.091205001 6787:0.091205001 6805:0.091205001 6849:0.091205001 7689:0.091205001 7858:0.16584 8002:0.091205001 8215:0.16584 8442:0.091205001 8994:0.187613 9131:0.091205001 9341:0.091205001 9348:0.091205001 9466:0.091205001 9611:0.091205001 10136:0.091205001 10438:0.091205001 10469:0.091205001 10617:0.091205001 11237:0.091205001 12702:0.091205001 12785:0.091205001 12980:0.091205001 13202:0.179216 13354:0.16584 13380:0.091205001 13744:0.091205001 14451:0.091205001 14870:0.091205001 14964:0.091205001 15007:0.199462 15190:0.091205001 15536:0.091205001 15820:0.142359 15878:0.091205001 16432:0.091205001 17399:0.091205001 17451:0.091205001 17837:0.091205001 17874:0.091205001 17946:0.091205001 18458:0.091205001 19368:0.142359 19550:0.091205001 19742:0.179216 19767:0.091205001 20177:0.091205001 20949:0.091205001 21763:0.091205001 21967:0.091205001 22641:0.091205001 22655:0.142359 22765:0.091205001 22945:0.091205001 22975:0.091205001 23125:0.091205001 23378:0.091205001 23512:0.091205001 23740:0.091205001 24569:0.091205001 24878:0.091205001 25182:0.091205001 #
-0.33243379208842221972375341465522 288:0.158675 556:0.071847998 807:0.112743 845:0.071847998 1107:0.071847998 1133:0.071847998 1453:0.112743 1822:0.131909 2731:0.112743 2810:0.071847998 3110:0.071847998 3536:0.071847998 3647:0.071847998 3693:0.071847998 3745:0.071847998 3851:0.071847998 3885:0.071847998 3994:0.071847998 4066:0.071847998 4071:0.112743 4161:0.071847998 4290:0.071847998 4728:0.071847998 5126:0.071847998 5238:0.071847998 5268:0.071847998 5561:0.112743 5851:0.071847998 6359:0.131909 6378:0.112743 6398:0.131909 6452:0.071847998 6470:0.131909 6668:0.071847998 6684:0.112743 6702:0.071847998 6816:0.071847998 7108:0.15520801 7124:0.071847998 8002:0.071847998 8215:0.112743 8614:0.112743 9453:0.071847998 9466:0.071847998 9641:0.071847998 9757:0.071847998 9773:0.071847998 10531:0.112743 10993:0.071847998 11004:0.071847998 11045:0.14308301 11051:0.071847998 11240:0.071847998 11289:0.071847998 11402:0.071847998 11502:0.15520801 11568:0.071847998 11613:0.071847998 11800:0.14308301 12329:0.112743 12702:0.112743 12714:0.071847998 12980:0.071847998 13296:0.131909 13380:0.071847998 14077:0.071847998 14196:0.071847998 14402:0.071847998 14451:0.071847998 15122:0.071847998 15218:0.112743 15513:0.112743 15674:0.131909 15820:0.112743 15928:0.071847998 15959:0.14308301 16377:0.071847998 16470:0.071847998 16480:0.14308301 16978:0.071847998 17366:0.071847998 17433:0.131909 17500:0.071847998 17565:0.071847998 18094:0.112743 18154:0.071847998 18852:0.071847998 19146:0.071847998 19341:0.071847998 19540:0.071847998 19548:0.071847998 20148:0.071847998 20177:0.071847998 20232:0.071847998 20309:0.071847998 20609:0.071847998 20733:0.112743 20967:0.158675 20974:0.071847998 21144:0.071847998 21224:0.112743 21459:0.112743 21708:0.071847998 21830:0.071847998 21950:0.112743 22008:0.071847998 22056:0.071847998 22497:0.071847998 22531:0.071847998 22547:0.071847998 22578:0.071847998 22655:0.071847998 23213:0.071847998 23418:0.071847998 23618:0.112743 24128:0.071847998 24575:0.112743 24601:0.071847998 #
-0.8020071556266809009727580814797 288:0.158712 556:0.071865 807:0.112769 845:0.071865 1107:0.071865 1133:0.071865 1453:0.112769 1822:0.13194001 2731:0.112769 2810:0.071865 3110:0.071865 3536:0.071865 3647:0.071865 3693:0.071865 3745:0.071865 3851:0.071865 3885:0.071865 3994:0.071865 4066:0.071865 4071:0.112769 4161:0.071865 4290:0.071865 4728:0.071865 5126:0.071865 5238:0.071865 5268:0.071865 5561:0.112769 5851:0.071865 6359:0.13194001 6378:0.112769 6398:0.13194001 6452:0.071865 6470:0.13194001 6668:0.071865 6684:0.112769 6702:0.071865 6816:0.071865 7108:0.15524501 7124:0.071865 8002:0.071865 8215:0.112769 8614:0.112769 9453:0.071865 9466:0.071865 9641:0.071865 9757:0.071865 9773:0.071865 10127:0.071865 10531:0.112769 10993:0.071865 11004:0.071865 11045:0.143117 11051:0.071865 11240:0.071865 11289:0.071865 11402:0.071865 11502:0.15524501 11568:0.071865 11613:0.071865 11800:0.143117 12329:0.112769 12702:0.112769 12714:0.071865 12980:0.071865 13296:0.13194001 13380:0.071865 14077:0.071865 14196:0.071865 14402:0.071865 15122:0.071865 15218:0.112769 15513:0.112769 15674:0.13194001 15820:0.112769 15928:0.071865 15959:0.143117 16377:0.071865 16470:0.071865 16480:0.143117 16978:0.071865 17433:0.13194001 17500:0.071865 17565:0.071865 18094:0.112769 18154:0.071865 18852:0.071865 19146:0.071865 19341:0.071865 19540:0.071865 19548:0.071865 20148:0.071865 20177:0.071865 20232:0.071865 20309:0.071865 20609:0.071865 20733:0.13194001 20967:0.158712 20974:0.071865 21144:0.071865 21224:0.112769 21459:0.112769 21708:0.071865 21830:0.071865 21950:0.112769 22008:0.071865 22056:0.071865 22497:0.071865 22531:0.071865 22547:0.071865 22578:0.071865 22655:0.071865 23213:0.071865 23418:0.071865 23618:0.112769 24128:0.071865 24575:0.112769 24601:0.071865 #
-0.97593255732764117027500105905347 288:0.240766 290:0.240766 539:0.13668799 1133:0.13668799 1453:0.13668799 2330:0.13668799 2619:0.26584899 3536:0.13668799 4858:0.240766 5126:0.240766 5191:0.13668799 6398:0.13668799 6816:0.13668799 8215:0.13668799 12118:0.25690001 14079:0.13668799 15236:0.13668799 15820:0.25690001 17714:0.13668799 17837:0.209681 18458:0.13668799 20720:0.13668799 20967:0.240766 21188:0.240766 21611:0.13668799 22594:0.209681 23308:0.209681 23372:0.13668799 24247:0.13668799 #
-0.99999990903834856670329145345022 38:0.090575002 288:0.14106999 325:0.090575002 331:0.090575002 739:0.14106999 771:0.14106999 1269:0.090575002 1401:0.090575002 1806:0.090575002 1822:0.177003 1921:0.090575002 1937:0.090575002 2035:0.090575002 2355:0.090575002 2460:0.090575002 3407:0.090575002 3536:0.164046 3693:0.090575002 3808:0.090575002 3817:0.14106999 4290:0.090575002 4541:0.090575002 4622:0.14106999 4831:0.090575002 5337:0.090575002 5851:0.090575002 6300:0.090575002 6470:0.18504 6855:0.090575002 7026:0.090575002 7141:0.090575002 7396:0.090575002 7416:0.090575002 8442:0.090575002 8614:0.090575002 8803:0.14106999 9773:0.090575002 9881:0.090575002 10188:0.090575002 10843:0.090575002 11004:0.164046 11227:0.090575002 11958:0.090575002 12702:0.14106999 12739:0.090575002 12823:0.090575002 13013:0.090575002 14682:0.090575002 15218:0.090575002 15267:0.090575002 15513:0.177003 15771:0.090575002 15820:0.164046 15944:0.14106999 16506:0.14106999 16861:0.090575002 17705:0.090575002 17874:0.090575002 17980:0.090575002 18284:0.090575002 18317:0.090575002 18560:0.090575002 18794:0.090575002 18962:0.14106999 19590:0.090575002 19762:0.090575002 20522:0.090575002 20649:0.090575002 20663:0.090575002 20682:0.164046 20967:0.14106999 21543:0.090575002 22460:0.090575002 22547:0.090575002 22665:0.090575002 22975:0.090575002 23243:0.14106999 23375:0.090575002 23588:0.090575002 23740:0.090575002 24643:0.090575002 24878:0.14106999 25152:0.14106999 25162:0.090575002 #
0.093528179487584406359701461042278 288:0.119953 290:0.119953 535:0.185021 1133:0.185021 2330:0.213431 2355:0.119953 3079:0.119953 3414:0.119953 3583:0.185021 3988:0.119953 3993:0.119953 5130:0.119953 5191:0.119953 5622:0.119953 6398:0.185021 6684:0.119953 7124:0.119953 8215:0.119953 8506:0.119953 8783:0.119953 9059:0.119953 9201:0.119953 9348:0.119953 10150:0.119953 10403:0.185021 10469:0.185021 10742:0.119953 10774:0.119953 12759:0.119953 13210:0.119953 14517:0.119953 15380:0.23752099 15878:0.119953 16481:0.185021 16993:0.119953 17054:0.119953 17649:0.119953 17874:0.185021 18683:0.119953 20309:0.119953 20384:0.119953 20664:0.119953 21671:0.119953 21967:0.119953 22416:0.119953 22428:0.119953 22975:0.119953 22993:0.119953 23194:0.119953 23449:0.119953 23569:0.119953 23899:0.185021 #
0.92494397675653561297082205783227 16:0.110562 42:0.070279002 288:0.161507 290:0.110562 349:0.070279002 771:0.070279002 1133:0.165353 1181:0.070279002 1269:0.12962499 1291:0.070279002 1377:0.070279002 1497:0.110562 1730:0.110562 1822:0.070279002 1863:0.070279002 1966:0.070279002 2330:0.110562 2355:0.110562 2460:0.070279002 2731:0.12962499 2782:0.140855 2837:0.070279002 2980:0.070279002 3368:0.153253 3407:0.070279002 3838:0.070279002 3988:0.070279002 3994:0.070279002 4151:0.070279002 4178:0.148184 4414:0.070279002 4592:0.070279002 4728:0.070279002 4860:0.070279002 4949:0.070279002 5126:0.153253 5260:0.070279002 5813:0.070279002 5974:0.12962499 6212:0.070279002 6378:0.070279002 6398:0.110562 6527:0.070279002 6684:0.110562 6687:0.070279002 6755:0.070279002 7050:0.070279002 7230:0.070279002 8002:0.110562 8098:0.070279002 8187:0.110562 8207:0.070279002 8415:0.165353 8442:0.12962499 8614:0.070279002 8783:0.070279002 8952:0.070279002 9163:0.070279002 9348:0.070279002 9466:0.110562 9532:0.070279002 9577:0.110562 9641:0.070279002 9663:0.070279002 9693:0.070279002 9773:0.070279002 10164:0.070279002 10374:0.070279002 10993:0.070279002 11292:0.070279002 11424:0.070279002 11863:0.110562 12000:0.070279002 12893:0.070279002 13329:0.070279002 13744:0.070279002 14089:0.070279002 14434:0.070279002 14512:0.12962499 14683:0.070279002 15218:0.070279002 15236:0.070279002 15334:0.070279002 15514:0.070279002 15665:0.070279002 15761:0.070279002 15820:0.070279002 15994:0.070279002 16155:0.070279002 16470:0.12962499 16876:0.070279002 16978:0.070279002 16993:0.070279002 17053:0.070279002 17858:0.070279002 17874:0.148184 17950:0.070279002 18154:0.153253 18337:0.110562 18425:0.070279002 18696:0.070279002 18946:0.070279002 19015:0.070279002 19336:0.070279002 19434:0.070279002 19605:0.070279002 20384:0.070279002 20682:0.070279002 22076:0.110562 22223:0.070279002 22441:0.070279002 22655:0.070279002 22686:0.070279002 22993:0.12962499 23044:0.070279002 23078:0.070279002 23276:0.070279002 23308:0.070279002 23342:0.070279002 23415:0.070279002 23588:0.070279002 23728:0.070279002 23740:0.070279002 23826:0.070279002 23949:0.070279002 23982:0.070279002 24156:0.070279002 24440:0.070279002 25023:0.070279002 #
0.84423547752261274279561575895059 288:0.140725 333:0.152421 818:0.076943003 971:0.120484 984:0.120484 1133:0.17087699 1491:0.076943003 1730:0.076943003 1822:0.159888 2403:0.076943003 2837:0.120484 3142:0.076943003 3145:0.076943003 3157:0.076943003 3290:0.076943003 3407:0.120484 3672:0.076943003 3676:0.076943003 3993:0.076943003 3994:0.120484 4144:0.076943003 4290:0.076943003 4489:0.076943003 5284:0.076943003 5410:0.076943003 5413:0.076943003 5466:0.076943003 5775:0.076943003 5974:0.076943003 6073:0.076943003 6359:0.140725 6425:0.076943003 6470:0.076943003 6805:0.120484 6855:0.076943003 7016:0.076943003 7513:0.076943003 8042:0.076943003 8347:0.076943003 8655:0.076943003 8777:0.076943003 8815:0.076943003 9348:0.120484 9422:0.076943003 9456:0.076943003 9970:0.076943003 10530:0.120484 10605:0.076943003 11004:0.120484 11306:0.076943003 11424:0.076943003 11662:0.120484 11777:0.076943003 11900:0.076943003 11958:0.076943003 12245:0.076943003 12383:0.076943003 12812:0.076943003 13312:0.076943003 13380:0.076943003 13388:0.076943003 13833:0.076943003 14029:0.076943003 14092:0.076943003 14220:0.076943003 14222:0.076943003 14300:0.120484 14481:0.076943003 14608:0.076943003 15375:0.076943003 15642:0.076943003 15674:0.076943003 15820:0.076943003 16246:0.076943003 16456:0.076943003 16842:0.140725 16861:0.076943003 16927:0.076943003 17218:0.076943003 17764:0.076943003 17946:0.076943003 18240:0.076943003 18270:0.076943003 18458:0.076943003 18685:0.076943003 19675:0.140725 19969:0.120484 20262:0.120484 20649:0.159888 20697:0.076943003 20905:0.076943003 20967:0.076943003 21975:0.140725 22001:0.120484 22380:0.152421 22594:0.076943003 22655:0.140725 22767:0.076943003 23194:0.120484 23277:0.076943003 23378:0.140725 23415:0.152421 23756:0.076943003 23774:0.076943003 24032:0.120484 24601:0.152421 24643:0.076943003 #
0.99999990903834856670329145345022 288:0.147268 539:0.12168 698:0.065971002 739:0.065971002 1133:0.15160801 1191:0.065971002 1269:0.065971002 1921:0.065971002 2136:0.12168 2380:0.103785 2460:0.065971002 2749:0.065971002 3078:0.065971002 3084:0.065971002 3315:0.065971002 3676:0.132222 3851:0.065971002 3858:0.065971002 3866:0.103785 4105:0.065971002 4161:0.103785 4290:0.065971002 4728:0.065971002 4860:0.103785 4948:0.132222 4983:0.065971002 5126:0.12168 5150:0.132222 5191:0.065971002 5215:0.065971002 5466:0.103785 5622:0.065971002 6083:0.103785 6544:0.065971002 6607:0.147268 6684:0.12168 6872:0.065971002 7124:0.065971002 7292:0.065971002 7378:0.065971002 7395:0.065971002 7809:0.065971002 7975:0.065971002 8215:0.065971002 8347:0.103785 8442:0.065971002 8590:0.065971002 8614:0.065971002 8675:0.065971002 8775:0.065971002 8777:0.065971002 8815:0.065971002 9045:0.065971002 9348:0.065971002 9422:0.065971002 9757:0.065971002 9821:0.065971002 9905:0.12168 9977:0.065971002 10003:0.065971002 10539:0.065971002 10607:0.065971002 10704:0.065971002 10742:0.065971002 10993:0.103785 11272:0.065971002 11367:0.103785 11691:0.065971002 11915:0.065971002 12021:0.103785 12134:0.065971002 12502:0.065971002 12980:0.065971002 13152:0.065971002 13271:0.065971002 13296:0.12168 13336:0.065971002 13354:0.065971002 14005:0.103785 14089:0.065971002 14307:0.065971002 14342:0.103785 14397:0.065971002 14564:0.103785 14636:0.065971002 14805:0.065971002 14969:0.065971002 15334:0.065971002 15375:0.12168 15399:0.103785 15674:0.065971002 15790:0.065971002 15959:0.065971002 16059:0.065971002 16466:0.065971002 16703:0.065971002 16859:0.065971002 16880:0.12168 17194:0.065971002 17213:0.065971002 17351:0.065971002 17579:0.065971002 17924:0.065971002 17946:0.103785 18425:0.103785 18560:0.103785 19027:0.14386 19565:0.14386 19662:0.12168 19749:0.065971002 20044:0.065971002 20132:0.065971002 20649:0.103785 20682:0.12168 20709:0.103785 20967:0.065971002 21006:0.065971002 21295:0.103785 21340:0.065971002 21459:0.065971002 21846:0.065971002 21893:0.065971002 22306:0.132222 22355:0.065971002 22594:0.103785 22704:0.065971002 22993:0.065971002 23115:0.065971002 23194:0.065971002 23308:0.065971002 23449:0.065971002 23569:0.103785 23588:0.065971002 23771:0.065971002 24403:0.065971002 24486:0.065971002 24794:0.065971002 25033:0.103785 25074:0.065971002 25162:0.065971002 #
0.021958663471621231444430577539606 288:0.184908 290:0.228636 539:0.213355 1133:0.228636 1730:0.119844 3676:0.119844 4948:0.119844 6607:0.213355 6684:0.119844 7351:0.184908 8544:0.119844 9201:0.184908 10003:0.119844 10875:0.213355 11248:0.119844 11340:0.184908 12980:0.184908 13682:0.119844 14564:0.119844 15293:0.119844 15375:0.228636 16013:0.119844 16745:0.119844 17924:0.119844 18458:0.119844 18560:0.213355 19027:0.24284901 19662:0.228636 20232:0.184908 20649:0.119844 20916:0.119844 21295:0.119844 21780:0.119844 21931:0.119844 22283:0.119844 22745:0.119844 24569:0.119844 24661:0.119844 25162:0.119844 #
0.1975051635976233788127842672111 24:0.064540997 32:0.064540997 168:0.064540997 288:0.144751 290:0.12971701 539:0.101649 657:0.064540997 1133:0.13655999 1191:0.064540997 1269:0.119282 1730:0.101649 2136:0.064540997 2220:0.064540997 2355:0.064540997 2647:0.101649 2782:0.064540997 3315:0.064540997 3649:0.064540997 3993:0.064540997 3994:0.064540997 4105:0.064540997 4259:0.064540997 4306:0.101649 5034:0.064540997 5126:0.13655999 5268:0.101649 5354:0.064540997 5387:0.064540997 5647:0.064540997 5691:0.064540997 5813:0.064540997 5865:0.064540997 5974:0.064540997 5984:0.064540997 6067:0.064540997 6143:0.064540997 6215:0.064540997 6346:0.064540997 6359:0.101649 6398:0.101649 6505:0.064540997 6601:0.064540997 6661:0.064540997 6678:0.064540997 6684:0.12971701 6687:0.064540997 6693:0.101649 6706:0.064540997 6755:0.064540997 6787:0.064540997 7141:0.064540997 7250:0.064540997 7364:0.064540997 7541:0.064540997 7621:0.064540997 8141:0.064540997 8215:0.064540997 8544:0.064540997 9348:0.064540997 9446:0.064540997 9466:0.064540997 9554:0.064540997 9947:0.12971701 10071:0.064540997 10136:0.101649 10456:0.064540997 10469:0.064540997 10875:0.064540997 10993:0.064540997 11248:0.064540997 11289:0.064540997 11367:0.064540997 11439:0.064540997 11594:0.064540997 12134:0.101649 12572:0.064540997 12702:0.101649 12992:0.101649 13296:0.064540997 13354:0.064540997 13374:0.064540997 13380:0.064540997 13560:0.064540997 14298:0.119282 14300:0.147282 14517:0.101649 14610:0.064540997 14614:0.064540997 15399:0.064540997 15812:0.064540997 15878:0.064540997 15959:0.064540997 16227:0.101649 16432:0.064540997 16683:0.064540997 16705:0.144751 16776:0.064540997 16859:0.064540997 16880:0.064540997 17054:0.064540997 17148:0.064540997 17513:0.064540997 17538:0.064540997 17705:0.064540997 17874:0.064540997 17881:0.064540997 17911:0.064540997 17976:0.064540997 18154:0.101649 18628:0.101649 18683:0.064540997 18745:0.064540997 18858:0.101649 18887:0.064540997 18945:0.064540997 18985:0.064540997 19369:0.101649 19518:0.064540997 19565:0.064540997 19737:0.064540997 19985:0.119282 20044:0.064540997 20304:0.064540997 20949:0.064540997 20967:0.101649 21071:0.064540997 21340:0.064540997 21495:0.064540997 21611:0.064540997 21839:0.064540997 21893:0.119282 21967:0.13655999 22283:0.064540997 22428:0.064540997 22497:0.064540997 22655:0.064540997 22665:0.064540997 22704:0.064540997 22993:0.064540997 23122:0.064540997 23162:0.064540997 23292:0.064540997 23449:0.064540997 23503:0.064540997 23512:0.064540997 23597:0.064540997 23688:0.101649 24197:0.064540997 24247:0.064540997 24403:0.064540997 24506:0.15165 24534:0.064540997 24536:0.064540997 24649:0.064540997 24878:0.12971701 24977:0.064540997 25148:0.119282 25162:0.064540997 25172:0.064540997 #
-0.99999990903834856670329145345022 288:0.16457 739:0.079290003 1053:0.079290003 1133:0.079290003 1269:0.14491899 1339:0.079290003 1730:0.079290003 1822:0.124113 2023:0.124113 2117:0.169714 2136:0.079290003 2205:0.079290003 2380:0.079290003 2403:0.124113 2460:0.079290003 2782:0.079290003 2917:0.079290003 3866:0.079290003 4430:0.079290003 5126:0.156922 5247:0.079290003 5258:0.124113 5984:0.14491899 6212:0.124113 6306:0.079290003 6347:0.079290003 6470:0.079290003 6628:0.079290003 6678:0.079290003 6684:0.14491899 6719:0.079290003 7195:0.079290003 7404:0.14491899 7795:0.079290003 8215:0.124113 8544:0.079290003 8614:0.124113 9567:0.079290003 9944:0.079290003 10213:0.079290003 10456:0.124113 10993:0.079290003 11424:0.14491899 12417:0.079290003 12702:0.079290003 12711:0.079290003 12992:0.079290003 13296:0.124113 13388:0.079290003 13787:0.079290003 13963:0.079290003 14079:0.079290003 14300:0.16457 14636:0.079290003 14683:0.079290003 15035:0.079290003 15425:0.14491899 15674:0.079290003 15820:0.079290003 16223:0.079290003 16470:0.079290003 16496:0.079290003 16695:0.079290003 16745:0.079290003 16861:0.079290003 17275:0.079290003 17874:0.16457 17976:0.079290003 18154:0.17577399 18238:0.079290003 18391:0.079290003 18409:0.079290003 18425:0.124113 18725:0.079290003 19758:0.079290003 19919:0.079290003 20285:0.14491899 20682:0.079290003 20967:0.156922 21427:0.079290003 22306:0.079290003 22358:0.079290003 22610:0.14491899 22646:0.14491899 22655:0.079290003 22745:0.079290003 23125:0.14491899 23177:0.079290003 23260:0.079290003 23587:0.079290003 23728:0.079290003 24156:0.079290003 24197:0.124113 24643:0.124113 24747:0.079290003 #
-0.52415063588191890264766925611184 130:0.081017002 288:0.16810299 1133:0.081017002 1269:0.126803 1291:0.126803 1730:0.081017002 1823:0.081017002 1965:0.081017002 3988:0.081017002 3993:0.16810299 4066:0.081017002 4161:0.081017002 4290:0.081017002 4622:0.081017002 4888:0.126803 5346:0.081017002 5589:0.126803 5736:0.148049 5974:0.081017002 6470:0.081017002 6678:0.081017002 6830:0.081017002 7151:0.081017002 7524:0.126803 8187:0.081017002 8347:0.081017002 8544:0.081017002 8815:0.126803 8857:0.081017002 9692:0.126803 9773:0.081017002 10091:0.081017002 10514:0.126803 10742:0.081017002 10790:0.081017002 11227:0.081017002 11248:0.081017002 11366:0.126803 11367:0.126803 11441:0.126803 11481:0.081017002 11863:0.081017002 11915:0.081017002 12502:0.081017002 12731:0.148049 12848:0.081017002 12960:0.081017002 13152:0.081017002 13336:0.1603 13380:0.081017002 14268:0.081017002 14300:0.081017002 14805:0.126803 14995:0.081017002 15189:0.081017002 15766:0.126803 15815:0.081017002 15820:0.081017002 15878:0.081017002 15937:0.126803 16496:0.081017002 16838:0.148049 16842:0.081017002 16859:0.081017002 17081:0.081017002 17117:0.081017002 17235:0.081017002 17296:0.081017002 17433:0.081017002 17705:0.081017002 17874:0.126803 17946:0.081017002 18128:0.081017002 18154:0.1603 18231:0.148049 18425:0.081017002 18497:0.126803 18501:0.081017002 19272:0.081017002 19347:0.081017002 19375:0.081017002 19540:0.081017002 20001:0.081017002 20709:0.126803 20967:0.18332399 21651:0.126803 21747:0.081017002 21931:0.081017002 22400:0.081017002 22427:0.081017002 22655:0.148049 22993:0.081017002 23342:0.081017002 24247:0.081017002 24403:0.081017002 24615:0.081017002 24649:0.081017002 24878:0.081017002 #
-0.80771723669925810096259510828531 78:0.100278 276:0.085065 288:0.132789 290:0.053704999 298:0.085065 331:0.053704999 539:0.109475 698:0.053704999 1053:0.053704999 1102:0.053704999 1269:0.100278 1423:0.053704999 1497:0.053704999 1585:0.053704999 1730:0.085065 1838:0.085065 1916:0.053704999 2136:0.053704999 2275:0.053704999 2373:0.053704999 2380:0.053704999 2460:0.085065 2490:0.053704999 2731:0.053704999 2749:0.053704999 2837:0.085065 3084:0.053704999 3649:0.100278 3851:0.085065 3926:0.053704999 4105:0.053704999 4210:0.053704999 4237:0.053704999 4541:0.053704999 4722:0.053704999 4831:0.053704999 4948:0.085065 5100:0.053704999 5126:0.130467 5224:0.053704999 5268:0.13142499 5294:0.053704999 5337:0.100278 5391:0.100278 5491:0.053704999 5563:0.053704999 5647:0.053704999 5865:0.053704999 6143:0.053704999 6212:0.053704999 6222:0.053704999 6269:0.053704999 6359:0.053704999 6505:0.12005 6684:0.109475 6687:0.053704999 6733:0.053704999 6755:0.053704999 6794:0.085065 6816:0.109475 6830:0.109475 6839:0.12774301 7120:0.053704999 7124:0.053704999 7216:0.053704999 7351:0.12005 7395:0.053704999 7411:0.109475 7444:0.053704999 7620:0.053704999 8347:0.053704999 8442:0.053704999 8476:0.053704999 8502:0.053704999 8815:0.085065 8994:0.129263 9131:0.053704999 9204:0.053704999 9270:0.053704999 9277:0.053704999 9348:0.085065 9611:0.053704999 9905:0.12774301 10062:0.053704999 10116:0.053704999 10136:0.085065 10513:0.085065 10514:0.109475 10539:0.053704999 10774:0.053704999 10875:0.053704999 10932:0.053704999 10986:0.053704999 10993:0.053704999 11021:0.053704999 11248:0.085065 11307:0.053704999 11439:0.053704999 11481:0.053704999 11568:0.053704999 11777:0.085065 12348:0.085065 12825:0.053704999 13123:0.085065 13152:0.053704999 13202:0.115647 13991:0.053704999 14268:0.100278 14316:0.053704999 14553:0.053704999 14602:0.053704999 14871:0.053704999 14886:0.085065 15035:0.053704999 15293:0.053704999 15334:0.100278 15399:0.053704999 15520:0.053704999 15651:0.053704999 15878:0.053704999 16295:0.053704999 16960:0.053704999 17268:0.053704999 17296:0.053704999 17538:0.053704999 17677:0.053704999 17705:0.100278 17716:0.100278 17773:0.053704999 17817:0.053704999 17837:0.100278 17874:0.115647 17927:0.12005 17980:0.053704999 18002:0.053704999 18154:0.100278 18317:0.053704999 18725:0.053704999 19186:0.053704999 19548:0.053704999 19675:0.12005 20044:0.053704999 20189:0.053704999 20430:0.053704999 20664:0.12774301 20682:0.053704999 20967:0.131365 21061:0.109475 21295:0.12774301 21459:0.053704999 21463:0.053704999 21479:0.085065 21598:0.053704999 21651:0.053704999 21710:0.053704999 21771:0.053704999 21794:0.100278 21839:0.053704999 21893:0.085065 21913:0.053704999 22255:0.053704999 22306:0.115647 22313:0.053704999 22428:0.053704999 22497:0.053704999 22655:0.053704999 22838:0.053704999 22993:0.109475 23503:0.100278 23826:0.053704999 24156:0.085065 24176:0.053704999 24213:0.085065 24326:0.109475 24403:0.100278 24486:0.053704999 24644:0.053704999 24664:0.053704999 24878:0.053704999 24922:0.053704999 #
-0.99999990903834856670329145345022 59:0.103818 81:0.048009001 226:0.048009001 288:0.121595 290:0.089863002 293:0.103818 428:0.048009001 454:0.048009001 539:0.048009001 647:0.076146998 657:0.048009001 739:0.048009001 771:0.076146998 826:0.048009001 846:0.048009001 888:0.076146998 928:0.076146998 1025:0.048009001 1133:0.089863002 1269:0.098196 1291:0.076146998 1375:0.048009001 1453:0.076146998 1651:0.048009001 1730:0.089863002 1763:0.048009001 1822:0.076146998 2004:0.048009001 2136:0.048009001 2203:0.076146998 2205:0.048009001 2355:0.048009001 2367:0.048009001 2373:0.048009001 2403:0.048009001 2460:0.076146998 2731:0.076146998 2782:0.048009001 2837:0.048009001 2917:0.076146998 3315:0.048009001 3536:0.048009001 3647:0.048009001 3694:0.048009001 3817:0.048009001 3838:0.048009001 4066:0.048009001 4119:0.048009001 4178:0.076146998 4425:0.048009001 4489:0.048009001 4562:0.048009001 4622:0.076146998 4716:0.048009001 4831:0.048009001 5044:0.076146998 5117:0.048009001 5126:0.110861 5466:0.048009001 5485:0.048009001 5503:0.048009001 5592:0.048009001 5929:0.048009001 6115:0.048009001 6143:0.048009001 6338:0.048009001 6359:0.089863002 6378:0.048009001 6398:0.048009001 6574:0.048009001 6597:0.048009001 6684:0.110861 6687:0.048009001 6702:0.103818 6817:0.048009001 6839:0.048009001 7287:0.048009001 7378:0.048009001 7404:0.048009001 7421:0.048009001 7500:0.048009001 7524:0.048009001 7541:0.076146998 7970:0.076146998 8215:0.089863002 8336:0.117557 8347:0.048009001 8476:0.089863002 8544:0.048009001 8614:0.048009001 8788:0.048009001 8861:0.048009001 9131:0.048009001 9201:0.076146998 9288:0.076146998 9348:0.089863002 9727:0.076146998 9822:0.048009001 9881:0.048009001 10003:0.076146998 10019:0.048009001 10091:0.048009001 10396:0.076146998 10514:0.048009001 10742:0.048009001 10875:0.048009001 10917:0.048009001 10971:0.048009001 11004:0.048009001 11040:0.048009001 11227:0.089863002 11326:0.076146998 11402:0.048009001 11481:0.048009001 11777:0.048009001 11874:0.076146998 11900:0.048009001 11931:0.048009001 11995:0.048009001 12094:0.076146998 12134:0.076146998 12159:0.098196 12327:0.076146998 12329:0.048009001 12528:0.048009001 12702:0.076146998 12759:0.048009001 12812:0.048009001 12860:0.048009001 12950:0.048009001 13013:0.076146998 13026:0.048009001 13123:0.110861 13245:0.089863002 13380:0.089863002 13697:0.048009001 14064:0.048009001 14079:0.048009001 14082:0.048009001 14268:0.048009001 14300:0.048009001 14309:0.076146998 14365:0.048009001 14451:0.048009001 14683:0.076146998 14684:0.048009001 14805:0.089863002 14851:0.048009001 15035:0.048009001 15058:0.089863002 15218:0.076146998 15422:0.048009001 15766:0.048009001 15790:0.089863002 15815:0.048009001 15820:0.048009001 15937:0.076146998 16059:0.048009001 16204:0.048009001 16207:0.048009001 16377:0.048009001 16409:0.048009001 16470:0.110861 16859:0.103818 16880:0.048009001 16950:0.048009001 17169:0.076146998 17235:0.048009001 17538:0.048009001 17639:0.048009001 17649:0.048009001 17669:0.048009001 17681:0.048009001 17705:0.10785 17756:0.048009001 17874:0.116411 17923:0.103818 17946:0.048009001 18128:0.048009001 18154:0.113171 18463:0.048009001 18484:0.048009001 18497:0.076146998 18597:0.048009001 18628:0.048009001 18721:0.048009001 18962:0.048009001 19518:0.048009001 19598:0.048009001 19667:0.076146998 19675:0.048009001 20017:0.048009001 20114:0.048009001 20189:0.048009001 20384:0.048009001 20682:0.048009001 20731:0.048009001 20946:0.048009001 20967:0.10785 21270:0.048009001 21421:0.048009001 21463:0.048009001 21708:0.048009001 21833:0.048009001 21930:0.048009001 21931:0.048009001 21967:0.048009001 22008:0.048009001 22040:0.048009001 22067:0.048009001 22207:0.048009001 22293:0.076146998 22306:0.048009001 22326:0.048009001 22358:0.048009001 22400:0.048009001 22655:0.113171 22686:0.048009001 22704:0.089863002 22745:0.048009001 22767:0.048009001 22771:0.076146998 22833:0.048009001 22861:0.048009001 22899:0.089863002 22993:0.076146998 23143:0.076146998 23177:0.048009001 23342:0.076146998 23503:0.10785 23586:0.048009001 23588:0.048009001 23618:0.048009001 23728:0.076146998 23740:0.048009001 24059:0.048009001 24091:0.048009001 24138:0.048009001 24197:0.048009001 24403:0.048009001 24486:0.048009001 24509:0.048009001 24553:0.048009001 24569:0.048009001 24649:0.076146998 24664:0.048009001 24825:0.048009001 25033:0.076146998 25044:0.048009001 25100:0.048009001 25152:0.076146998 #
-0.63037990225149653777947378330282 288:0.160606 539:0.066927001 771:0.066927001 824:0.066927001 1115:0.066927001 1213:0.123999 1269:0.066927001 1912:0.066927001 2136:0.066927001 2205:0.15096299 2399:0.066927001 2450:0.066927001 2729:0.157343 3136:0.066927001 3219:0.066927001 3407:0.066927001 3414:0.066927001 3693:0.066927001 4105:0.123999 4113:0.066927001 4119:0.066927001 4290:0.066927001 4860:0.066927001 4948:0.066927001 5117:0.105551 5126:0.15096299 5191:0.123999 5215:0.066927001 5536:0.066927001 6047:0.105551 6212:0.066927001 6222:0.134973 6359:0.066927001 6385:0.066927001 6470:0.105551 6678:0.066927001 6684:0.14728101 6817:0.066927001 7541:0.066927001 7580:0.066927001 8212:0.066927001 8442:0.066927001 8506:0.066927001 9027:0.105551 9142:0.159444 9368:0.066927001 9374:0.066927001 9847:0.134973 10062:0.066927001 10298:0.066927001 10875:0.066927001 10993:0.066927001 11004:0.066927001 11009:0.105551 11227:0.066927001 11402:0.066927001 11439:0.066927001 11777:0.066927001 12134:0.066927001 12348:0.066927001 12624:0.066927001 12786:0.066927001 12825:0.105551 12848:0.066927001 13210:0.066927001 13296:0.15096299 13874:0.066927001 14005:0.105551 14183:0.066927001 14553:0.066927001 14888:0.066927001 15399:0.134973 15747:0.066927001 16137:0.066927001 17148:0.066927001 17515:0.105551 17538:0.142212 17705:0.105551 17837:0.160117 17881:0.105551 17927:0.15096299 18013:0.066927001 18231:0.105551 18337:0.066927001 18962:0.066927001 19154:0.155771 19662:0.066927001 19675:0.066927001 19827:0.066927001 19905:0.066927001 20091:0.066927001 20395:0.105551 20649:0.155771 20967:0.161247 21006:0.066927001 21950:0.066927001 22093:0.105551 22156:0.105551 22259:0.105551 22306:0.105551 22594:0.066927001 22655:0.105551 22767:0.105551 22838:0.066927001 22908:0.105551 22975:0.066927001 22993:0.105551 23378:0.066927001 23569:0.066927001 23588:0.066927001 23740:0.066927001 23862:0.105551 23956:0.105551 24156:0.066927001 24213:0.066927001 24553:0.066927001 24601:0.066927001 24878:0.066927001 #
0.55521064140659415198086890086415 140:0.072319001 288:0.166391 290:0.113612 739:0.072319001 771:0.113612 824:0.072319001 952:0.072319001 1094:0.072319001 1133:0.113612 1453:0.072319001 1730:0.072319001 1822:0.144437 1966:0.072319001 2136:0.072319001 2205:0.072319001 2275:0.072319001 2373:0.072319001 2837:0.072319001 3833:0.072319001 3936:0.072319001 3988:0.072319001 4066:0.072319001 5191:0.160493 5268:0.13304999 5984:0.072319001 6398:0.113612 6629:0.072319001 6954:0.072319001 8002:0.072319001 8215:0.072319001 8442:0.160493 8515:0.156892 8783:0.072319001 8904:0.072319001 9207:0.072319001 9270:0.113612 9569:0.072319001 9614:0.072319001 9641:0.113612 9693:0.113612 9822:0.072319001 10116:0.072319001 10774:0.113612 10843:0.072319001 10875:0.113612 11101:0.113612 11227:0.072319001 11248:0.072319001 11424:0.072319001 11568:0.072319001 11995:0.072319001 12279:0.072319001 12290:0.113612 12327:0.072319001 12702:0.144437 12740:0.13304999 12848:0.072319001 12927:0.072319001 13296:0.13304999 13888:0.072319001 13989:0.072319001 14005:0.072319001 14293:0.072319001 14316:0.072319001 14428:0.072319001 14636:0.072319001 15399:0.072319001 15513:0.144437 15541:0.072319001 15820:0.113612 15959:0.13304999 16013:0.072319001 16480:0.165004 16829:0.113612 16842:0.072319001 16958:0.072319001 16993:0.072319001 17235:0.072319001 17287:0.072319001 17433:0.072319001 17500:0.072319001 17538:0.13304999 17837:0.113612 17874:0.144437 18185:0.151822 18391:0.072319001 18425:0.072319001 19153:0.072319001 19208:0.072319001 19368:0.072319001 19548:0.072319001 20132:0.072319001 20177:0.113612 20189:0.072319001 20649:0.072319001 20682:0.13304999 20828:0.072319001 21331:0.072319001 21355:0.072319001 21421:0.072319001 21975:0.072319001 22501:0.072319001 22611:0.072319001 22665:0.072319001 22745:0.072319001 22747:0.144437 22771:0.072319001 23177:0.072319001 23378:0.113612 23588:0.072319001 23728:0.072319001 24156:0.072319001 24608:0.072319001 24976:0.072319001 25172:0.072319001 #
0.9887083111667701595948187787144 288:0.164846 290:0.079423003 325:0.079423003 411:0.079423003 739:0.079423003 860:0.079423003 1053:0.079423003 1107:0.079423003 1133:0.164846 1241:0.124321 1453:0.079423003 1583:0.079423003 1823:0.079423003 2205:0.079423003 2430:0.079423003 2460:0.079423003 2495:0.079423003 2628:0.079423003 2778:0.079423003 2793:0.079423003 3136:0.079423003 3145:0.079423003 3407:0.079423003 3817:0.079423003 4066:0.079423003 4224:0.145162 4414:0.079423003 4507:0.079423003 4622:0.079423003 4704:0.079423003 4750:0.079423003 5117:0.124321 5477:0.079423003 5503:0.079423003 5813:0.079423003 5890:0.164846 5901:0.124321 6141:0.079423003 6398:0.079423003 6660:0.145162 6719:0.079423003 6743:0.124321 7094:0.079423003 7124:0.079423003 7975:0.079423003 8002:0.079423003 8074:0.079423003 8215:0.164846 8506:0.079423003 8700:0.145162 8895:0.124321 8981:0.164846 9270:0.079423003 9555:0.079423003 9807:0.079423003 10136:0.079423003 10875:0.079423003 11200:0.079423003 11439:0.079423003 11517:0.079423003 11698:0.079423003 11777:0.079423003 11995:0.079423003 12279:0.079423003 12502:0.124321 12731:0.145162 12812:0.079423003 12825:0.079423003 13336:0.079423003 14316:0.079423003 14434:0.079423003 14553:0.079423003 15236:0.079423003 15385:0.079423003 15513:0.079423003 15641:0.079423003 15874:0.079423003 15917:0.079423003 15986:0.079423003 16295:0.079423003 16466:0.079423003 16776:0.079423003 16829:0.164846 17169:0.079423003 17273:0.079423003 17649:0.124321 17874:0.157185 17881:0.079423003 18154:0.124321 19098:0.079423003 19807:0.079423003 20036:0.124321 20649:0.079423003 20731:0.079423003 20967:0.079423003 21159:0.079423003 21270:0.124321 21611:0.079423003 21708:0.079423003 22172:0.079423003 22283:0.124321 22641:0.079423003 22747:0.079423003 23308:0.079423003 23415:0.079423003 23449:0.079423003 23503:0.124321 24059:0.079423003 24403:0.079423003 #
0.83017902378899244286714065310662 16:0.070311002 20:0.070311002 280:0.070311002 288:0.156038 428:0.070311002 657:0.070311002 739:0.070311002 771:0.110458 778:0.110458 807:0.070311002 1053:0.070311002 1133:0.161772 1181:0.070311002 1191:0.070311002 1269:0.129357 1453:0.129357 1758:0.070311002 1822:0.110458 1938:0.070311002 2205:0.070311002 2355:0.070311002 2373:0.070311002 2374:0.070311002 2472:0.070311002 2577:0.070311002 2782:0.070311002 2810:0.070311002 2917:0.070311002 3647:0.070311002 3735:0.129357 3840:0.070311002 3918:0.110458 4224:0.070311002 4489:0.070311002 4722:0.070311002 5191:0.147607 5198:0.070311002 5268:0.070311002 5471:0.070311002 5974:0.070311002 6000:0.070311002 6269:0.070311002 6306:0.070311002 6359:0.110458 6470:0.070311002 6684:0.110458 6702:0.070311002 6954:0.110458 6981:0.070311002 7124:0.110458 7411:0.070311002 7952:0.070311002 8002:0.070311002 8215:0.129357 8544:0.110458 8614:0.070311002 8777:0.070311002 8783:0.110458 8803:0.110458 9453:0.070311002 9620:0.070311002 9757:0.110458 10062:0.070311002 10136:0.070311002 10150:0.14042801 10207:0.070311002 10403:0.070311002 10514:0.070311002 10617:0.070311002 10843:0.129357 11004:0.070311002 11857:0.070311002 11863:0.110458 12134:0.070311002 12300:0.070311002 12444:0.070311002 12702:0.14042801 12825:0.070311002 13380:0.110458 13588:0.070311002 14230:0.070311002 14280:0.110458 14517:0.110458 14564:0.070311002 14964:0.147607 15820:0.070311002 16377:0.070311002 16769:0.110458 16880:0.070311002 16978:0.070311002 16993:0.070311002 17053:0.070311002 17148:0.070311002 17296:0.070311002 17837:0.110458 17874:0.152537 18154:0.129357 18212:0.070311002 18583:0.070311002 19272:0.070311002 19296:0.070311002 19368:0.070311002 20372:0.129357 20709:0.110458 20774:0.070311002 20949:0.070311002 21064:0.070311002 21087:0.129357 21543:0.070311002 21578:0.070311002 21975:0.070311002 22306:0.070311002 22591:0.070311002 22655:0.16042399 22665:0.129357 22686:0.070311002 23308:0.070311002 23415:0.070311002 23728:0.070311002 23899:0.070311002 24197:0.070311002 24747:0.070311002 24878:0.070311002 24922:0.070311002 #
0.54631644163033887817704226108617 288:0.190092 434:0.190092 1133:0.16856 1291:0.093093 1375:0.093093 1453:0.093093 1937:0.144969 2355:0.093093 2527:0.093093 2782:0.093093 2836:0.093093 3315:0.093093 3391:0.093093 3407:0.093093 3988:0.093093 3993:0.093093 4966:0.144969 5180:0.093093 5215:0.093093 5263:0.144969 5485:0.144969 5561:0.093093 5903:0.190092 6470:0.093093 6816:0.093093 6855:0.093093 7396:0.093093 8074:0.093093 8115:0.093093 8146:0.144969 8215:0.093093 8442:0.093093 9641:0.144969 9693:0.093093 10209:0.093093 10742:0.093093 11227:0.093093 11248:0.093093 12444:0.093093 12992:0.093093 13165:0.093093 13380:0.093093 13514:0.093093 13977:0.093093 14172:0.144969 14300:0.16856 14476:0.093093 14964:0.144969 15040:0.093093 15399:0.093093 15928:0.093093 16705:0.195443 16745:0.093093 16929:0.093093 17010:0.093093 17500:0.18185399 17874:0.144969 18112:0.093093 18703:0.093093 19174:0.144969 19540:0.093093 19985:0.144969 20177:0.093093 20682:0.093093 21129:0.093093 21291:0.093093 21356:0.093093 21421:0.093093 21833:0.093093 21893:0.093093 22207:0.093093 22610:0.093093 22667:0.093093 23125:0.093093 23458:0.093093 23633:0.144969 23740:0.093093 24553:0.093093 #
0.69078076310990932373812256628298 288:0.239656 428:0.135741 1133:0.208492 2373:0.135741 2460:0.208492 2762:0.135741 2782:0.135741 3866:0.135741 5051:0.135741 5150:0.135741 5191:0.135741 5891:0.135741 6755:0.135741 6839:0.135741 7620:0.135741 10300:0.135741 11229:0.135741 11240:0.135741 11995:0.135741 12321:0.135741 12523:0.135741 12662:0.135741 14554:0.135741 14683:0.135741 15820:0.208492 15959:0.135741 16277:0.208492 16470:0.208492 16672:0.135741 16861:0.135741 19368:0.135741 19531:0.135741 19550:0.135741 19552:0.135741 20232:0.135741 21600:0.135741 21868:0.135741 21967:0.135741 22001:0.135741 22283:0.135741 23482:0.208492 23588:0.135741 24403:0.135741 24860:0.135741 #
-0.37522087562095085555569085045136 288:0.207321 657:0.107522 1453:0.107522 1803:0.107522 3649:0.107522 4066:0.107522 4071:0.107522 4290:0.166585 5736:0.19287699 5851:0.107522 5974:0.107522 6185:0.107522 6306:0.166585 6702:0.107522 7124:0.107522 7364:0.107522 8215:0.107522 8347:0.107522 8614:0.107522 9348:0.107522 9466:0.107522 10309:0.21598899 10539:0.107522 10774:0.107522 11367:0.107522 11568:0.19287699 11729:0.107522 12327:0.107522 12444:0.107522 13388:0.107522 14298:0.166585 14473:0.166585 14915:0.107522 15674:0.107522 15959:0.19287699 16412:0.21598899 16432:0.107522 17241:0.107522 17874:0.166585 18154:0.207321 19151:0.107522 19368:0.107522 19414:0.107522 20522:0.107522 20682:0.107522 20967:0.207321 21340:0.107522 21967:0.107522 22306:0.107522 22501:0.107522 22625:0.107522 23308:0.166585 23512:0.107522 24197:0.107522 24643:0.19287699 #
-0.51441527492811323085675212496426 288:0.10373 325:0.10373 1227:0.10373 1291:0.10373 1385:0.10373 1863:0.16088299 2094:0.10373 3419:0.10373 3988:0.10373 4541:0.16088299 4849:0.10373 4948:0.10373 5191:0.10373 5274:0.16088299 5783:0.10373 6097:0.10373 6136:0.10373 7411:0.10373 9039:0.18644001 9348:0.18644001 9550:0.16088299 9641:0.10373 10266:0.16088299 10979:0.10373 11002:0.10373 11946:0.16088299 12134:0.10373 12848:0.10373 13374:0.10373 13380:0.10373 14089:0.10373 14451:0.10373 14517:0.10373 14535:0.16088299 14683:0.16088299 15155:0.217849 15218:0.10373 15820:0.20055901 15874:0.10373 15878:0.10373 16013:0.10373 16859:0.10373 17070:0.10373 17874:0.16088299 18241:0.10373 18317:0.10373 19238:0.10373 19336:0.10373 19662:0.16088299 20298:0.10373 20967:0.18644001 21495:0.16088299 21651:0.10373 21893:0.18644001 22001:0.10373 22428:0.10373 22594:0.10373 22655:0.10373 23125:0.16088299 23990:0.10373 24403:0.10373 #
-0.43130471894246313890874944263487 288:0.19521999 739:0.127 1375:0.19521999 2330:0.127 3988:0.127 3993:0.23996601 4940:0.127 4948:0.127 5191:0.127 5485:0.127 5491:0.127 6269:0.127 6684:0.127 8074:0.127 9201:0.127 9348:0.127 9498:0.19521999 9611:0.127 9977:0.127 10742:0.127 10875:0.19521999 11101:0.127 11289:0.127 12980:0.127 13380:0.127 13856:0.127 15091:0.19521999 15428:0.127 15820:0.127 16703:0.127 16880:0.19521999 17054:0.127 17213:0.127 17296:0.127 17681:0.127 18587:0.127 18962:0.127 19042:0.127 19250:0.127 19308:0.224549 19662:0.127 20232:0.127 20967:0.127 21528:0.127 22655:0.224549 22924:0.127 23342:0.127 #
-0.97280736569125392243506667000474 78:0.073576003 288:0.135314 290:0.073576003 293:0.135314 739:0.135314 1133:0.115564 1269:0.115564 2035:0.073576003 2205:0.115564 2355:0.073576003 2380:0.073576003 2432:0.073576003 2460:0.073576003 2782:0.073576003 3536:0.073576003 3988:0.115564 4831:0.115564 5126:0.115564 5150:0.073576003 5466:0.073576003 5485:0.073576003 5490:0.073576003 5901:0.073576003 5934:0.146873 5984:0.073576003 6212:0.073576003 6398:0.073576003 6669:0.073576003 6678:0.073576003 6693:0.073576003 6755:0.073576003 6787:0.073576003 7195:0.073576003 7345:0.073576003 7411:0.115564 7541:0.115564 8215:0.073576003 8347:0.073576003 8442:0.135314 8544:0.073576003 8614:0.073576003 8803:0.073576003 8882:0.073576003 10003:0.073576003 10207:0.073576003 10774:0.115564 10843:0.159499 10875:0.073576003 10993:0.073576003 11289:0.115564 11863:0.073576003 11916:0.115564 13296:0.073576003 13388:0.15436301 13581:0.115564 13860:0.073576003 13866:0.073576003 13888:0.115564 14423:0.115564 14517:0.073576003 15091:0.073576003 15305:0.073576003 15513:0.146873 15820:0.115564 16470:0.165776 16695:0.073576003 16829:0.073576003 16861:0.073576003 17213:0.073576003 17276:0.073576003 17681:0.073576003 17705:0.073576003 17874:0.17008799 17891:0.073576003 18013:0.073576003 18233:0.115564 18391:0.115564 18725:0.073576003 18792:0.073576003 18945:0.146873 19548:0.146873 19550:0.073576003 19598:0.073576003 20091:0.073576003 20232:0.073576003 20254:0.073576003 20285:0.115564 20967:0.146873 21400:0.073576003 22003:0.073576003 22248:0.073576003 22297:0.146873 22306:0.146873 22594:0.073576003 22655:0.17159601 22771:0.073576003 23078:0.073576003 23177:0.115564 23415:0.073576003 23569:0.073576003 23740:0.073576003 23826:0.073576003 24703:0.115564 24878:0.073576003 25073:0.073576003 #
-0.33255844974311488115858992387075 24:0.059349999 38:0.059349999 288:0.138889 290:0.093702003 657:0.093702003 739:0.093702003 771:0.059349999 1174:0.110173 1269:0.059349999 1339:0.059349999 1375:0.059349999 1453:0.059349999 1465:0.059349999 1600:0.059349999 1730:0.120012 1921:0.059349999 2275:0.059349999 2373:0.059349999 2403:0.131118 2460:0.059349999 2566:0.093702003 3172:0.059349999 3250:0.059349999 3400:0.059349999 3694:0.059349999 3745:0.059349999 3752:0.110173 3817:0.093702003 3957:0.059349999 3994:0.093702003 4057:0.059349999 4161:0.059349999 4290:0.093702003 4441:0.059349999 4831:0.093702003 4860:0.059349999 4948:0.059349999 4983:0.131118 5223:0.059349999 5413:0.059349999 5442:0.059349999 5485:0.093702003 5622:0.059349999 5901:0.110173 5974:0.093702003 6269:0.093702003 6355:0.120012 6452:0.093702003 6505:0.093702003 6687:0.059349999 7250:0.059349999 7339:0.059349999 7555:0.059349999 7623:0.059349999 8002:0.059349999 8215:0.093702003 8347:0.059349999 8442:0.093702003 8502:0.059349999 8544:0.059349999 9009:0.059349999 9045:0.059349999 9270:0.093702003 9348:0.059349999 9555:0.059349999 9824:0.110173 10298:0.141482 10469:0.059349999 10502:0.14035399 10607:0.093702003 10617:0.093702003 10880:0.059349999 11248:0.059349999 11863:0.110173 11874:0.059349999 12134:0.093702003 12540:0.093702003 12624:0.093702003 12731:0.059349999 12733:0.059349999 12739:0.059349999 12894:0.059349999 13697:0.059349999 13855:0.059349999 13874:0.059349999 14089:0.059349999 14268:0.059349999 14402:0.059349999 14611:0.120012 14682:0.059349999 14683:0.059349999 14870:0.093702003 14964:0.059349999 14969:0.059349999 15040:0.059349999 15218:0.059349999 15249:0.126532 15334:0.059349999 15341:0.059349999 15667:0.059349999 15820:0.110173 15874:0.093702003 15878:0.059349999 15986:0.059349999 16013:0.110173 16054:0.059349999 16196:0.059349999 16432:0.059349999 16466:0.059349999 17079:0.059349999 17131:0.059349999 17268:0.059349999 17296:0.110173 17378:0.059349999 17649:0.093702003 17705:0.059349999 17837:0.110173 17874:0.120012 17881:0.093702003 17927:0.059349999 18154:0.143006 18238:0.059349999 18327:0.059349999 18469:0.059349999 18475:0.093702003 18962:0.059349999 19434:0.059349999 19540:0.059349999 19609:0.059349999 19675:0.13447 19807:0.059349999 19827:0.059349999 20298:0.059349999 20522:0.059349999 20536:0.120012 20609:0.059349999 20663:0.059349999 20709:0.093702003 20916:0.093702003 20918:0.059349999 20958:0.059349999 20967:0.14234801 21554:0.059349999 22143:0.059349999 22539:0.131118 22655:0.120012 22908:0.059349999 22993:0.093702003 23194:0.093702003 23378:0.110173 23503:0.093702003 24403:0.059349999 #
0.6438784940844818338590016537637 107:0.118592 288:0.118592 290:0.22589201 739:0.118592 1133:0.210889 1465:0.18286499 1822:0.118592 5126:0.22589201 5398:0.118592 5466:0.118592 5984:0.118592 6661:0.118592 6678:0.118592 7780:0.118592 8212:0.118592 9947:0.22589201 10676:0.118592 11101:0.118592 11289:0.118592 11424:0.118592 12873:0.118592 12992:0.118592 13087:0.118592 13123:0.22589201 13296:0.118592 14300:0.18286499 15399:0.118592 17705:0.18286499 17740:0.118592 17848:0.118592 17874:0.18286499 17924:0.118592 18154:0.118592 18497:0.118592 18560:0.118592 18628:0.118592 19985:0.118592 20006:0.118592 20513:0.118592 20682:0.210889 20949:0.118592 22416:0.118592 22655:0.118592 23292:0.118592 24519:0.118592 24878:0.118592 25152:0.18286499 25182:0.18286499 #
0.64589271894641531179814819552121 42:0.092419997 211:0.092419997 276:0.092419997 288:0.18093701 771:0.092419997 1069:0.092419997 1133:0.167606 1269:0.092419997 1822:0.14404599 2205:0.092419997 2373:0.092419997 2837:0.092419997 2948:0.092419997 3831:0.14404599 3866:0.092419997 4161:0.092419997 4290:0.092419997 4728:0.092419997 4793:0.092419997 4831:0.092419997 5126:0.14404599 5191:0.092419997 5525:0.092419997 5633:0.092419997 6470:0.092419997 6684:0.092419997 7633:0.092419997 8098:0.092419997 8215:0.092419997 8219:0.092419997 8347:0.092419997 8442:0.092419997 8476:0.14404599 8788:0.092419997 8815:0.092419997 8994:0.14404599 9121:0.14404599 9238:0.092419997 9270:0.092419997 9348:0.092419997 9498:0.092419997 9892:0.092419997 10502:0.092419997 10565:0.092419997 10875:0.092419997 12476:0.092419997 12662:0.092419997 13202:0.167606 13296:0.167606 13380:0.092419997 13782:0.092419997 14517:0.092419997 14533:0.092419997 14553:0.092419997 14798:0.092419997 15052:0.14404599 15124:0.092419997 15399:0.092419997 15513:0.092419997 15662:0.092419997 15878:0.092419997 15958:0.198292 16409:0.092419997 17213:0.092419997 17705:0.092419997 18264:0.092419997 18628:0.092419997 19029:0.092419997 19338:0.092419997 19891:0.092419997 20409:0.092419997 22655:0.14404599 22783:0.092419997 23194:0.092419997 23326:0.18923999 23740:0.14404599 24156:0.092419997 24197:0.092419997 24592:0.092419997 24601:0.092419997 24756:0.092419997 24922:0.167606 24962:0.14404599 24977:0.092419997 #
0.34095469836804737084889893594664 78:0.12859 290:0.243442 657:0.12859 739:0.12859 1133:0.25240901 1269:0.19781201 1730:0.12859 2205:0.12859 2731:0.12859 3328:0.12859 3676:0.25240901 3817:0.12859 5126:0.25240901 5413:0.12859 6687:0.12859 6816:0.12859 7411:0.22767401 7758:0.12859 11863:0.12859 13380:0.12859 14280:0.12859 14564:0.12859 14964:0.12859 15820:0.12859 15908:0.19781201 16829:0.12859 17874:0.19781201 18154:0.12859 18238:0.19781201 18628:0.19781201 19609:0.12859 20522:0.12859 20664:0.12859 22655:0.19781201 22993:0.12859 23342:0.12859 24536:0.12859 25152:0.12859 25162:0.12859 #
0.50001785296585832263360771321459 116:0.078558996 288:0.155939 290:0.123114 1133:0.17697801 1269:0.078558996 1336:0.14389101 1689:0.14389101 2035:0.078558996 2318:0.078558996 3145:0.078558996 3157:0.179153 3332:0.078558996 3817:0.078558996 3838:0.123114 4066:0.078558996 5126:0.123114 5191:0.14389101 5260:0.078558996 5264:0.078558996 5337:0.078558996 5390:0.14389101 5413:0.078558996 5491:0.078558996 5865:0.123114 5984:0.078558996 6398:0.155939 6470:0.078558996 6684:0.123114 6743:0.078558996 6816:0.078558996 6861:0.078558996 6886:0.123114 7124:0.078558996 7141:0.078558996 8215:0.078558996 8502:0.078558996 8815:0.123114 9027:0.078558996 9201:0.078558996 9270:0.078558996 9348:0.078558996 9389:0.155939 9822:0.078558996 9881:0.078558996 10136:0.078558996 10309:0.078558996 10374:0.078558996 11289:0.078558996 11517:0.078558996 11946:0.078558996 11995:0.078558996 12315:0.078558996 12825:0.123114 13682:0.078558996 14005:0.078558996 14200:0.179719 15218:0.078558996 15617:0.078558996 15771:0.123114 15790:0.078558996 15820:0.123114 15878:0.123114 17432:0.078558996 18391:0.078558996 18497:0.078558996 19238:0.078558996 19338:0.14389101 19440:0.078558996 19550:0.14389101 19662:0.078558996 20114:0.078558996 20556:0.123114 20622:0.078558996 20649:0.123114 21596:0.078558996 21600:0.078558996 21911:0.078558996 21967:0.078558996 22056:0.078558996 22156:0.078558996 22306:0.078558996 22400:0.078558996 22428:0.123114 22497:0.078558996 22594:0.155939 22655:0.078558996 22747:0.078558996 22975:0.078558996 22993:0.123114 23116:0.078558996 23277:0.078558996 23740:0.123114 23955:0.078558996 24044:0.078558996 24245:0.163661 24460:0.078558996 25152:0.078558996 #
-0.88953291148345170480382648747764 16:0.074271999 208:0.155248 220:0.074271999 280:0.074271999 288:0.074271999 290:0.116519 739:0.116519 771:0.116519 904:0.074271999 1133:0.116519 1269:0.074271999 1375:0.074271999 1822:0.116519 2205:0.116519 2731:0.116519 2782:0.074271999 3315:0.074271999 3328:0.074271999 3649:0.074271999 3817:0.147824 3988:0.13630199 4117:0.116519 4489:0.074271999 4728:0.074271999 5082:0.074271999 5126:0.155248 5260:0.074271999 5485:0.074271999 6078:0.074271999 6359:0.074271999 6398:0.074271999 6470:0.074271999 6755:0.074271999 7500:0.074271999 8215:0.074271999 8347:0.074271999 8360:0.074271999 8614:0.074271999 9027:0.074271999 9163:0.074271999 9466:0.074271999 10062:0.074271999 10213:0.074271999 10438:0.13630199 10666:0.13630199 11059:0.074271999 11289:0.074271999 11424:0.116519 11860:0.116519 11863:0.163867 12242:0.074271999 12317:0.074271999 12617:0.074271999 12825:0.074271999 13013:0.074271999 13123:0.074271999 13296:0.116519 13581:0.074271999 14089:0.155248 14683:0.13630199 14684:0.074271999 14811:0.074271999 15218:0.074271999 15341:0.074271999 15399:0.074271999 15820:0.147824 15986:0.13630199 17054:0.116519 17579:0.074271999 17705:0.074271999 17874:0.13630199 17924:0.074271999 17939:0.074271999 17950:0.116519 18094:0.074271999 18154:0.155248 18233:0.074271999 18238:0.074271999 18311:0.074271999 18324:0.074271999 19467:0.074271999 19548:0.074271999 19609:0.074271999 19762:0.074271999 20522:0.074271999 20663:0.074271999 20740:0.116519 20967:0.155248 21136:0.074271999 21333:0.074271999 21459:0.116519 22001:0.074271999 22248:0.074271999 22287:0.074271999 22547:0.116519 22655:0.17109101 23129:0.074271999 23243:0.074271999 23702:0.13630199 24197:0.074271999 24403:0.074271999 24601:0.116519 24616:0.116519 24643:0.116519 24878:0.074271999 25152:0.074271999 #
-0.61570952656693134219523244610173 67:0.099528 288:0.19319899 290:0.099528 539:0.099528 1339:0.099528 1465:0.099528 1595:0.099528 2335:0.099528 2373:0.099528 2403:0.099528 2749:0.099528 3400:0.154605 3752:0.179397 4290:0.154605 5082:0.099528 5126:0.099528 5191:0.099528 5215:0.099528 5223:0.099528 5238:0.099528 5331:0.154605 5589:0.099528 5622:0.099528 5643:0.099528 5984:0.099528 6359:0.099528 6398:0.099528 7230:0.099528 7374:0.099528 8347:0.099528 8442:0.099528 8815:0.099528 9446:0.099528 10563:0.099528 12342:0.099528 12585:0.19319899 12731:0.099528 12733:0.099528 12739:0.099528 12786:0.099528 12873:0.099528 12884:0.099528 12980:0.099528 13336:0.099528 13977:0.154605 14533:0.154605 14564:0.099528 14892:0.099528 15692:0.154605 15820:0.099528 15878:0.099528 16466:0.099528 16776:0.099528 17682:0.099528 18082:0.099528 18578:0.206993 18945:0.099528 19272:0.099528 19540:0.099528 20298:0.099528 20949:0.099528 20967:0.19319899 21064:0.154605 21340:0.099528 21967:0.099528 22156:0.099528 22207:0.099528 22539:0.099528 23569:0.154605 23587:0.099528 23633:0.19319899 24489:0.099528 24878:0.099528 #
-0.3622391480664868268490863556508 1:0.137556 288:0.21072599 1213:0.21072599 2749:0.21072599 4810:0.137556 4983:0.137556 5051:0.137556 5191:0.137556 5268:0.241686 5728:0.137556 5851:0.137556 6452:0.137556 6684:0.137556 7621:0.241686 8981:0.137556 9039:0.21072599 9498:0.137556 10158:0.137556 10875:0.137556 12300:0.137556 12796:0.137556 13148:0.137556 13423:0.137556 15297:0.21072599 15884:0.137556 15899:0.241686 16672:0.137556 16859:0.21072599 18094:0.257615 18174:0.137556 19236:0.137556 20967:0.137556 22156:0.137556 22547:0.137556 23588:0.137556 23956:0.137556 #
-0.18326592663889942902422092174675 15:0.058931001 106:0.058931001 140:0.058931001 288:0.141726 290:0.10948 428:0.058931001 772:0.058931001 1069:0.058931001 1078:0.058931001 1453:0.125806 1583:0.058931001 1812:0.093079999 1936:0.058931001 1998:0.058931001 2460:0.058931001 2731:0.058931001 2778:0.058931001 2782:0.058931001 2810:0.058931001 3216:0.093079999 3400:0.10948 3407:0.10948 3760:0.058931001 3817:0.093079999 3831:0.058931001 3988:0.093079999 4175:0.093079999 4629:0.058931001 4888:0.058931001 5126:0.119293 5191:0.13376001 5260:0.058931001 5268:0.058931001 5300:0.13969401 5346:0.058931001 5471:0.058931001 5577:0.058931001 5901:0.093079999 6143:0.058931001 6266:0.058931001 6269:0.093079999 6359:0.093079999 6452:0.119293 6505:0.058931001 6816:0.13039801 6912:0.058931001 7124:0.093079999 7215:0.058931001 7476:0.058931001 7623:0.093079999 8207:0.058931001 8442:0.10948 8655:0.058931001 8815:0.058931001 9824:0.058931001 9881:0.058931001 10396:0.058931001 10502:0.119293 10605:0.13821 10676:0.093079999 10742:0.058931001 10932:0.13628399 11402:0.058931001 11424:0.058931001 11863:0.058931001 12134:0.093079999 12624:0.058931001 12731:0.058931001 12739:0.058931001 12812:0.058931001 12825:0.093079999 12848:0.058931001 12881:0.058931001 13026:0.058931001 13225:0.058931001 13351:0.058931001 13380:0.058931001 13697:0.058931001 13977:0.13039801 14008:0.058931001 14517:0.093079999 14602:0.058931001 15305:0.058931001 15514:0.058931001 15771:0.058931001 15878:0.058931001 15991:0.058931001 16377:0.093079999 16470:0.13039801 16745:0.058931001 16757:0.13039801 16880:0.10948 16952:0.058931001 17296:0.093079999 17538:0.125806 17649:0.093079999 17681:0.058931001 17837:0.058931001 17874:0.093079999 17927:0.058931001 17950:0.058931001 18068:0.058931001 18127:0.058931001 18154:0.058931001 18391:0.093079999 18458:0.058931001 18588:0.058931001 18725:0.058931001 18815:0.058931001 18843:0.093079999 19245:0.058931001 19277:0.058931001 19375:0.058931001 19440:0.093079999 19467:0.058931001 19548:0.093079999 19684:0.058931001 19826:0.058931001 20006:0.058931001 20177:0.093079999 20649:0.093079999 20663:0.058931001 20682:0.093079999 20813:0.058931001 20949:0.058931001 20967:0.14372499 21188:0.058931001 21257:0.058931001 21333:0.058931001 21651:0.10948 21800:0.093079999 21954:0.058931001 22248:0.058931001 22263:0.058931001 22326:0.058931001 22428:0.058931001 22547:0.058931001 22578:0.058931001 22594:0.058931001 22655:0.10948 22747:0.058931001 22856:0.093079999 22898:0.058931001 22908:0.058931001 22993:0.093079999 23177:0.058931001 23260:0.058931001 23503:0.058931001 23570:0.119293 23597:0.058931001 24027:0.058931001 24247:0.058931001 24273:0.10948 24569:0.058931001 24601:0.119293 24649:0.10948 24922:0.093079999 #
0.27353327693377638141214447387028 288:0.150996 428:0.102072 535:0.14178599 657:0.064831004 739:0.064831004 1133:0.13019399 1187:0.064831004 1269:0.13019399 1822:0.064831004 1969:0.064831004 2205:0.102072 2674:0.064831004 2782:0.064831004 3315:0.064831004 3404:0.064831004 3994:0.064831004 4161:0.102072 4200:0.064831004 4224:0.064831004 4290:0.064831004 4750:0.064831004 4806:0.064831004 4847:0.14178599 5191:0.14178599 5260:0.064831004 5762:0.064831004 5974:0.064831004 6136:0.064831004 6452:0.064831004 6684:0.13019399 6687:0.064831004 6787:0.064831004 7085:0.064831004 7124:0.064831004 7262:0.102072 7267:0.064831004 7411:0.064831004 7617:0.102072 7795:0.102072 8215:0.064831004 8347:0.064831004 8506:0.064831004 8783:0.102072 9270:0.064831004 9338:0.064831004 9348:0.064831004 9422:0.064831004 9641:0.13019399 9693:0.13019399 10037:0.064831004 10049:0.119748 10062:0.064831004 10136:0.064831004 10143:0.119748 10160:0.064831004 10213:0.064831004 10993:0.064831004 11341:0.064831004 11424:0.064831004 11644:0.064831004 11847:0.064831004 11863:0.064831004 11995:0.064831004 12417:0.064831004 12519:0.064831004 12711:0.102072 12731:0.064831004 13225:0.064831004 13354:0.064831004 13963:0.102072 14113:0.064831004 14517:0.102072 14533:0.064831004 14821:0.064831004 15218:0.102072 15273:0.064831004 15334:0.064831004 15425:0.119748 15554:0.064831004 15684:0.14772099 15820:0.102072 15878:0.064831004 15986:0.064831004 16357:0.064831004 16466:0.064831004 16470:0.064831004 16604:0.064831004 16861:0.064831004 16893:0.064831004 16993:0.102072 17054:0.102072 17148:0.064831004 17213:0.064831004 17236:0.064831004 17391:0.14178599 17538:0.064831004 17568:0.064831004 17874:0.14178599 17939:0.064831004 18013:0.064831004 18231:0.064831004 18391:0.102072 18409:0.064831004 18425:0.064831004 18471:0.064831004 18560:0.137035 18725:0.064831004 18899:0.102072 18962:0.064831004 19440:0.064831004 20003:0.13019399 20177:0.064831004 20309:0.064831004 20536:0.102072 20649:0.064831004 20663:0.064831004 20682:0.102072 20691:0.102072 21347:0.064831004 22001:0.064831004 22076:0.064831004 22223:0.064831004 22358:0.064831004 22428:0.064831004 22445:0.064831004 22497:0.064831004 22547:0.102072 22594:0.064831004 22610:0.13019399 22646:0.102072 22655:0.064831004 22665:0.119748 22833:0.064831004 22968:0.064831004 23107:0.064831004 23758:0.13019399 23956:0.064831004 24878:0.102072 24977:0.102072 #
0.60283397202519373170304106679396 288:0.19273899 739:0.19273899 1133:0.221835 2205:0.125292 2373:0.19273899 2628:0.125292 4306:0.125292 5466:0.125292 5491:0.125292 6470:0.125292 6658:0.125292 6684:0.125292 6805:0.125292 7150:0.125292 7541:0.125292 8018:0.125292 8614:0.125292 9025:0.19273899 9270:0.125292 9773:0.125292 10843:0.125292 11004:0.125292 11051:0.125292 11307:0.125292 11326:0.125292 11402:0.125292 11785:0.125292 13236:0.19273899 14821:0.125292 15513:0.125292 15674:0.19273899 15944:0.19273899 15986:0.125292 16829:0.125292 18628:0.221835 19609:0.125292 19999:0.125292 20189:0.125292 20649:0.125292 22655:0.221835 22686:0.125292 23587:0.19273899 23588:0.125292 23826:0.19273899 24156:0.125292 #
0.52430738250927633181674991647014 78:0.056542002 121:0.056542002 281:0.056542002 288:0.136548 290:0.137759 535:0.136548 539:0.089367002 556:0.120956 657:0.056542002 824:0.056542002 1133:0.125416 1208:0.056542002 1269:0.089367002 1465:0.056542002 1730:0.056542002 1763:0.056542002 1822:0.089367002 2066:0.056542002 2141:0.056542002 2205:0.056542002 2290:0.056542002 2355:0.105169 2374:0.056542002 2460:0.056542002 3076:0.056542002 3136:0.056542002 3315:0.056542002 3484:0.056542002 3608:0.056542002 3647:0.056542002 3693:0.056542002 3831:0.056542002 3851:0.056542002 3988:0.056542002 3993:0.105169 4066:0.056542002 4161:0.056542002 4210:0.056542002 4254:0.056542002 4290:0.056542002 4622:0.105169 4783:0.056542002 4906:0.056542002 4948:0.056542002 5191:0.105169 5350:0.056542002 5442:0.056542002 5736:0.114647 5813:0.056542002 5851:0.056542002 5974:0.056542002 6133:0.056542002 6223:0.056542002 6269:0.089367002 6338:0.056542002 6434:0.056542002 6545:0.056542002 6684:0.056542002 6702:0.114647 6755:0.089367002 6816:0.105169 7230:0.056542002 7411:0.089367002 7476:0.056542002 7500:0.089367002 7581:0.056542002 7749:0.131163 7800:0.056542002 7851:0.056542002 8046:0.056542002 8212:0.089367002 8347:0.120956 8442:0.089367002 8544:0.056542002 8777:0.056542002 9270:0.056542002 9348:0.105169 9389:0.114647 9466:0.056542002 9802:0.056542002 10003:0.056542002 10091:0.056542002 10136:0.056542002 10502:0.056542002 10569:0.056542002 10676:0.056542002 10742:0.125416 10774:0.056542002 10843:0.056542002 10875:0.089367002 11004:0.056542002 11439:0.089367002 11568:0.056542002 11613:0.056542002 11830:0.056542002 11915:0.105169 12134:0.056542002 12702:0.089367002 12825:0.056542002 12848:0.089367002 12985:0.056542002 13026:0.056542002 13125:0.089367002 13296:0.125416 13336:0.056542002 13380:0.120956 13682:0.105169 14183:0.056542002 14200:0.120956 14293:0.114647 14636:0.056542002 14964:0.089367002 14995:0.056542002 15128:0.056542002 15293:0.056542002 15399:0.120956 15420:0.089367002 15843:0.056542002 15937:0.089367002 15959:0.105169 16013:0.056542002 16334:0.105169 16470:0.056542002 16745:0.056542002 17054:0.056542002 17287:0.056542002 17433:0.056542002 17538:0.056542002 17874:0.120956 18024:0.056542002 18063:0.056542002 18238:0.056542002 18240:0.056542002 18268:0.056542002 18287:0.056542002 18425:0.056542002 18721:0.056542002 18745:0.056542002 18873:0.056542002 19153:0.056542002 19272:0.056542002 19336:0.056542002 19553:0.089367002 20003:0.056542002 20006:0.089367002 20177:0.056542002 20409:0.056542002 20513:0.056542002 20609:0.056542002 20649:0.105169 20663:0.056542002 20682:0.089367002 20709:0.056542002 20852:0.056542002 21333:0.056542002 21839:0.056542002 22008:0.056542002 22156:0.056542002 22547:0.089367002 22655:0.105169 22747:0.056542002 22771:0.105169 22993:0.105169 23378:0.089367002 23415:0.056542002 23448:0.13566101 23597:0.056542002 23688:0.056542002 23728:0.056542002 23740:0.056542002 23763:0.056542002 23899:0.056542002 24233:0.056542002 24878:0.056542002 25172:0.056542002 25182:0.056542002 #
0.4722672115217806942943923331768 16:0.198984 288:0.18500499 580:0.102971 824:0.102971 1133:0.15967099 1269:0.15967099 1453:0.102971 2205:0.102971 2373:0.102971 2649:0.15967099 3988:0.102971 4224:0.102971 4295:0.15967099 4983:0.102971 5223:0.18500499 6269:0.102971 6452:0.102971 6976:0.15967099 7287:0.102971 8215:0.102971 8442:0.15967099 9168:0.102971 9348:0.102971 9567:0.102971 9641:0.102971 9773:0.102971 10062:0.102971 10676:0.102971 10932:0.102971 11271:0.102971 11307:0.102971 12242:0.102971 12290:0.207423 12502:0.102971 12523:0.102971 12662:0.102971 12812:0.15967099 12848:0.102971 13744:0.102971 14517:0.102971 14870:0.102971 15513:0.102971 15681:0.102971 15820:0.102971 15878:0.102971 16993:0.102971 17266:0.102971 17500:0.207423 17874:0.15967099 19518:0.102971 20262:0.102971 20972:0.102971 21540:0.18500499 21703:0.102971 21893:0.102971 22207:0.15967099 22283:0.102971 22655:0.15967099 22724:0.102971 23483:0.102971 24976:0.102971 24977:0.198984 #
-0.42684922505355976651841842794965 78:0.19601101 288:0.127373 290:0.25548699 1241:0.127373 2778:0.127373 2793:0.127373 5191:0.225669 6702:0.127373 6902:0.127373 7741:0.127373 7970:0.127373 8895:0.25548699 9099:0.19601101 9270:0.127373 9773:0.127373 10136:0.127373 10396:0.127373 10742:0.127373 11089:0.127373 12624:0.127373 14005:0.127373 14682:0.127373 15091:0.19601101 15236:0.127373 15766:0.19601101 17213:0.127373 17669:0.127373 18238:0.19601101 18425:0.19601101 19042:0.127373 20132:0.127373 20232:0.19601101 20522:0.127373 20967:0.19601101 21459:0.19601101 21651:0.127373 21967:0.127373 22898:0.127373 22899:0.225669 #
-0.30899726683726258524842478436767 288:0.22139201 821:0.144811 2373:0.144811 3465:0.26977599 5191:0.22139201 5413:0.144811 5606:0.144811 5633:0.144811 9201:0.144811 9270:0.144811 9422:0.144811 10003:0.144811 11568:0.144811 12848:0.22139201 12980:0.22139201 12986:0.25348401 13856:0.22139201 14089:0.144811 14683:0.25348401 16013:0.144811 16859:0.144811 17504:0.144811 17557:0.22139201 19154:0.144811 19662:0.144811 20001:0.144811 20251:0.144811 20649:0.144811 20967:0.25348401 24569:0.144811 24902:0.144811 #
-0.29404848124888666172083162564377 288:0.183981 771:0.093843997 1812:0.183981 1823:0.093843997 1966:0.093843997 2511:0.093843997 3315:0.146346 3407:0.093843997 3988:0.198075 4008:0.093843997 4076:0.093843997 5622:0.093843997 5974:0.146346 6816:0.093843997 6830:0.093843997 8347:0.093843997 8442:0.183981 8544:0.093843997 8874:0.093843997 9039:0.093843997 9131:0.093843997 9201:0.146346 9348:0.093843997 10676:0.093843997 10875:0.146346 10993:0.093843997 11229:0.093843997 11344:0.146346 11367:0.093843997 11402:0.093843997 11439:0.093843997 11517:0.093843997 12629:0.093843997 12825:0.093843997 13989:0.093843997 14183:0.093843997 14517:0.093843997 14683:0.093843997 15035:0.170359 15766:0.093843997 15878:0.093843997 15937:0.093843997 15986:0.093843997 16471:0.093843997 16745:0.146346 17117:0.093843997 17243:0.093843997 17504:0.170359 17538:0.093843997 17924:0.093843997 18183:0.093843997 18628:0.093843997 19662:0.093843997 19792:0.093843997 20232:0.093843997 20709:0.170359 20967:0.207039 21333:0.198075 21800:0.183981 22306:0.093843997 22428:0.093843997 22655:0.20182399 22993:0.093843997 23277:0.093843997 23286:0.093843997 23572:0.093843997 24197:0.093843997 24273:0.170359 24403:0.093843997 24878:0.093843997 #
0.28077886757531927974795848967915 288:0.123527 290:0.123527 333:0.123527 739:0.123527 1133:0.190092 1291:0.123527 2731:0.123527 3838:0.123527 4224:0.123527 5082:0.123527 5126:0.123527 5274:0.123527 5491:0.123527 5984:0.123527 6359:0.123527 6661:0.123527 6755:0.123527 7691:0.190092 7975:0.23407499 8360:0.123527 9747:0.190092 9905:0.190092 10875:0.123527 11286:0.190092 11402:0.123527 11439:0.123527 13977:0.123527 14058:0.123527 14300:0.190092 14535:0.123527 15513:0.123527 15928:0.123527 16227:0.123527 16233:0.123527 16466:0.123527 17924:0.123527 18240:0.123527 18317:0.123527 19318:0.123527 19948:0.123527 20313:0.123527 20861:0.123527 20949:0.190092 21295:0.123527 21340:0.123527 21703:0.123527 21760:0.123527 22296:0.123527 22655:0.123527 23430:0.123527 24009:0.123527 24977:0.190092 #
0.1586294707949855165018959723966 16:0.14138401 99:0.14833499 211:0.117674 280:0.124754 387:0.056869 535:0.10735 657:0.090626001 971:0.056869 1025:0.056869 1133:0.14438801 1144:0.056869 1730:0.150252 1822:0.056869 1845:0.056869 2290:0.056869 2359:0.090626001 2762:0.056869 2778:0.117674 3136:0.090626001 3290:0.10735 3407:0.056869 3885:0.129922 3994:0.10735 4057:0.056869 4066:0.056869 4436:0.056869 4540:0.056869 4783:0.056869 4948:0.117674 5191:0.090626001 5261:0.056869 5563:0.056869 5760:0.090626001 5984:0.056869 6359:0.056869 6574:0.13385101 7298:0.056869 7351:0.090626001 7541:0.090626001 7691:0.056869 7850:0.056869 7851:0.117674 7923:0.10735 7951:0.10735 8215:0.056869 8347:0.056869 8935:0.129922 9422:0.056869 9453:0.056869 9515:0.056869 9641:0.10735 9859:0.056869 10003:0.090626001 10438:0.056869 10520:0.056869 10531:0.056869 10875:0.056869 11326:0.090626001 11542:0.056869 11631:0.14796101 11905:0.056869 12241:0.14302599 12290:0.129922 12327:0.056869 12702:0.056869 12733:0.090626001 12873:0.090626001 13025:0.090626001 13301:0.13692699 13613:0.056869 13633:0.056869 13697:0.056869 14300:0.117674 14452:0.056869 14721:0.117674 15091:0.056869 15218:0.056869 15300:0.056869 15423:0.056869 15513:0.124754 15541:0.10735 15602:0.111713 15642:0.10735 15654:0.117674 15928:0.090626001 15988:0.056869 16480:0.056869 16481:0.056869 16506:0.090626001 16722:0.117674 16745:0.10735 16776:0.056869 16829:0.056869 16842:0.056869 17054:0.056869 17433:0.056869 17470:0.056869 17557:0.124754 17950:0.056869 18185:0.124754 18560:0.13385101 19667:0.056869 19685:0.124754 19827:0.090626001 20091:0.056869 20142:0.10735 20298:0.124754 20384:0.056869 20663:0.056869 20740:0.090626001 20781:0.056869 21160:0.124754 21860:0.056869 21966:0.056869 22318:0.090626001 22382:0.056869 22745:0.090626001 22898:0.090626001 23298:0.056869 23448:0.14302599 23569:0.056869 23588:0.056869 24170:0.056869 24403:0.090626001 24519:0.090626001 25092:0.090626001 25152:0.090626001 #
0.41529157315884246415294001053553 38:0.119139 208:0.119139 288:0.18358999 290:0.18358999 1133:0.211612 1269:0.119139 2779:0.119139 3098:0.119139 3808:0.119139 4082:0.18358999 4224:0.119139 4983:0.119139 5126:0.119139 5703:0.18358999 6269:0.18358999 6452:0.119139 6755:0.119139 7878:0.119139 8360:0.119139 9168:0.119139 9348:0.119139 9822:0.119139 9891:0.119139 9993:0.18358999 10502:0.18358999 10514:0.119139 11402:0.119139 11424:0.119139 12012:0.119139 12417:0.211612 12662:0.119139 14005:0.18358999 14300:0.226559 15218:0.119139 15878:0.119139 16471:0.119139 17490:0.119139 17874:0.211612 18725:0.119139 19336:0.18358999 20003:0.119139 20663:0.119139 20949:0.119139 20964:0.119139 21682:0.119139 22610:0.119139 22745:0.119139 24156:0.119139 24403:0.119139 #
0.10105091626675329063989039468652 288:0.16119801 535:0.19768301 1133:0.16119801 2155:0.088308997 2197:0.16119801 3581:0.138133 3994:0.138133 4105:0.16119801 4259:0.088308997 4540:0.174463 4622:0.16119801 4948:0.138133 5264:0.138133 6509:0.195117 7014:0.088308997 7621:0.088308997 7747:0.088308997 7795:0.138133 7868:0.088308997 8347:0.088308997 8415:0.088308997 8544:0.138133 9348:0.138133 9905:0.088308997 10150:0.088308997 10961:0.088308997 11306:0.16119801 11522:0.088308997 11863:0.138133 12290:0.088308997 13963:0.138133 13977:0.182886 14397:0.088308997 14517:0.088308997 15380:0.16119801 15541:0.174463 16523:0.088308997 17407:0.138133 17533:0.088308997 18284:0.138133 19469:0.088308997 20262:0.088308997 20298:0.088308997 20682:0.138133 21064:0.16119801 21359:0.138133 21893:0.088308997 21994:0.088308997 22594:0.16119801 22993:0.138133 23342:0.16119801 23448:0.19924 23633:0.182886 23955:0.088308997 24009:0.088308997 24403:0.088308997 24977:0.182886 #
0.3538757276610171031983043121727 113:0.093650997 116:0.093650997 288:0.182873 428:0.093650997 539:0.093650997 763:0.145815 1133:0.196502 1208:0.093650997 1298:0.093650997 1332:0.093650997 1415:0.182873 1822:0.093650997 1998:0.093650997 2330:0.145815 2729:0.093650997 3333:0.093650997 3694:0.093650997 4290:0.093650997 5191:0.145815 5589:0.145815 5813:0.093650997 5984:0.093650997 6258:0.093650997 6660:0.093650997 6684:0.093650997 6903:0.093650997 7617:0.093650997 8212:0.093650997 8215:0.093650997 8442:0.093650997 8783:0.145815 8803:0.093650997 9645:0.093650997 9757:0.093650997 10531:0.093650997 10986:0.093650997 11045:0.093650997 11651:0.093650997 12825:0.145815 13026:0.093650997 13189:0.093650997 13236:0.093650997 13336:0.145815 13339:0.093650997 13946:0.093650997 14268:0.093650997 15177:0.145815 15218:0.145815 16431:0.145815 16993:0.145815 17000:0.093650997 17053:0.093650997 17433:0.093650997 17858:0.093650997 17963:0.145815 18185:0.093650997 18317:0.145815 18327:0.093650997 18391:0.093650997 19025:0.093650997 19368:0.093650997 19758:0.093650997 20273:0.093650997 20654:0.093650997 20733:0.182873 20992:0.093650997 21170:0.093650997 21868:0.093650997 22143:0.093650997 22428:0.093650997 22747:0.093650997 22975:0.093650997 23277:0.145815 23512:0.145815 23634:0.093650997 24385:0.093650997 24403:0.182873 24878:0.093650997 #
-0.41216141996752003739956649042142 288:0.18898401 1823:0.10544 2782:0.10544 3029:0.18898401 3647:0.10544 3741:0.10544 3988:0.18898401 4066:0.10544 5387:0.10544 5622:0.10544 5919:0.163284 6470:0.10544 6505:0.163284 6684:0.163284 6817:0.10544 7702:0.10544 8347:0.10544 8442:0.10544 9131:0.10544 9348:0.10544 9822:0.10544 9993:0.10544 10062:0.10544 10955:0.10544 11402:0.10544 11900:0.10544 13189:0.10544 13336:0.10544 13380:0.10544 14298:0.163284 14300:0.10544 14566:0.163284 14610:0.18898401 14821:0.10544 15513:0.163284 15874:0.10544 15879:0.10544 16432:0.10544 16859:0.18898401 17646:0.10544 18233:0.163284 19369:0.163284 20513:0.10544 20709:0.10544 20967:0.203069 21340:0.163284 21595:0.163284 21967:0.163284 22416:0.10544 22594:0.163284 22655:0.10544 23308:0.163284 23415:0.10544 23581:0.10544 23642:0.10544 23771:0.10544 24846:0.10544 25044:0.10544 #
-0.45477125210102820052071592726861 288:0.163296 428:0.082635 539:0.129271 657:0.082635 739:0.082635 772:0.082635 778:0.082635 1291:0.082635 1453:0.18012799 1730:0.129271 1823:0.082635 2136:0.082635 2416:0.082635 2731:0.082635 2778:0.082635 3647:0.082635 4105:0.082635 4210:0.082635 4290:0.129271 4652:0.082635 4949:0.082635 5150:0.129271 5268:0.163296 5813:0.082635 5816:0.082635 6222:0.082635 6223:0.082635 6378:0.082635 6425:0.082635 6684:0.150869 6687:0.150869 6813:0.129271 6816:0.082635 7612:0.082635 7827:0.082635 8175:0.082635 8215:0.129271 8347:0.082635 8614:0.150869 8803:0.082635 9039:0.082635 9757:0.082635 10091:0.082635 10200:0.082635 10450:0.082635 10502:0.082635 10539:0.129271 10564:0.082635 11328:0.082635 11568:0.082635 12134:0.129271 12242:0.082635 12444:0.082635 12980:0.082635 13551:0.082635 14590:0.082635 15541:0.082635 15820:0.129271 15878:0.129271 15959:0.185633 16842:0.082635 17500:0.082635 17557:0.17119101 17874:0.082635 18238:0.082635 18497:0.082635 18945:0.082635 19375:0.082635 19414:0.17119101 19445:0.082635 19531:0.082635 19612:0.082635 20177:0.082635 20609:0.082635 20798:0.082635 20948:0.082635 20967:0.18267 21052:0.082635 21340:0.082635 21355:0.082635 22008:0.082635 22248:0.150869 22263:0.129271 22306:0.082635 22312:0.082635 22428:0.082635 22497:0.082635 22625:0.082635 22655:0.150869 23910:0.129271 24649:0.150869 #
-0.26508991794492769988877967080043 288:0.205918 580:0.13412 739:0.236615 1730:0.205918 3328:0.13412 3993:0.13412 4888:0.25263199 5126:0.13412 5466:0.13412 6223:0.13412 6574:0.13412 7411:0.236615 8442:0.13412 10539:0.13412 11863:0.236615 15273:0.13412 15820:0.205918 16470:0.205918 17874:0.26905099 18154:0.236615 18628:0.236615 20649:0.13412 20967:0.236615 22655:0.26158699 23342:0.13412 23587:0.236615 25182:0.13412 #
0.015504615166101812229193512848724 288:0.227798 290:0.23666801 539:0.227798 556:0.21257199 736:0.119404 1133:0.21257199 3673:0.119404 3676:0.18423 4728:0.119404 5413:0.119404 5891:0.119404 5974:0.119404 6607:0.18423 8777:0.119404 9025:0.119404 9905:0.18423 10188:0.119404 10298:0.119404 11248:0.18423 11289:0.18423 11311:0.119404 11481:0.119404 12714:0.119404 13296:0.119404 13380:0.119404 13670:0.119404 14564:0.119404 15375:0.23666801 16409:0.119404 16432:0.119404 17010:0.119404 17705:0.119404 17874:0.119404 17881:0.119404 17984:0.119404 18458:0.119404 19553:0.18423 20232:0.119404 20609:0.119404 21967:0.18423 22501:0.119404 22655:0.119404 23415:0.119404 23449:0.119404 24569:0.119404 #
-0.30043802934797497750096795243735 273:0.065475002 276:0.065475002 288:0.15436099 290:0.15436099 539:0.103178 629:0.065475002 657:0.065475002 964:0.121132 1375:0.103178 1706:0.065475002 1863:0.103178 2035:0.065475002 2778:0.065475002 3993:0.147192 4629:0.14366101 4713:0.103178 4728:0.065475002 4948:0.155801 5022:0.103178 5034:0.121132 5070:0.065475002 5126:0.155192 5350:0.065475002 5503:0.065475002 5577:0.121132 5783:0.147192 5837:0.065475002 5851:0.103178 5869:0.065475002 6378:0.065475002 6661:0.065475002 6817:0.065475002 7524:0.103178 7530:0.065475002 7541:0.131779 7617:0.065475002 7705:0.065475002 8215:0.065475002 8544:0.065475002 9348:0.14366101 9498:0.121132 10116:0.065475002 10213:0.065475002 10429:0.065475002 10539:0.065475002 10617:0.103178 10742:0.103178 10993:0.065475002 11053:0.065475002 11101:0.065475002 11227:0.065475002 11289:0.131779 11307:0.103178 11332:0.065475002 11877:0.065475002 11900:0.065475002 11946:0.065475002 11995:0.131779 12327:0.065475002 12343:0.065475002 12731:0.103178 12980:0.065475002 13374:0.121132 13514:0.103178 13744:0.065475002 13895:0.065475002 14375:0.065475002 14535:0.103178 14564:0.065475002 15040:0.065475002 15662:0.065475002 15878:0.065475002 15937:0.065475002 15986:0.103178 16196:0.065475002 16277:0.065475002 16335:0.103178 16426:0.103178 16880:0.065475002 16893:0.103178 17000:0.065475002 17296:0.065475002 17874:0.065475002 17881:0.131779 17924:0.103178 17984:0.065475002 18013:0.065475002 18154:0.103178 18231:0.065475002 18425:0.065475002 18497:0.065475002 18501:0.14366101 18721:0.065475002 19308:0.14366101 20663:0.103178 20967:0.153246 21347:0.065475002 21459:0.103178 21780:0.103178 21893:0.121132 22056:0.103178 22460:0.103178 22480:0.065475002 22655:0.14366101 22686:0.103178 22745:0.065475002 22993:0.065475002 23342:0.121132 23740:0.065475002 24403:0.103178 24584:0.065475002 24643:0.103178 24700:0.065475002 25152:0.065475002 #
-0.40538548235083432524916702277551 288:0.181806 290:0.181806 470:0.093213998 771:0.093213998 772:0.145068 1269:0.093213998 2035:0.093213998 2136:0.093213998 2403:0.16858999 2729:0.093213998 2837:0.093213998 3136:0.093213998 3808:0.093213998 3988:0.093213998 3993:0.145068 4119:0.093213998 4161:0.093213998 4290:0.093213998 5126:0.16858999 5191:0.093213998 5215:0.145068 5577:0.093213998 5974:0.093213998 6222:0.16858999 6849:0.093213998 8315:0.093213998 8442:0.093213998 9009:0.181806 9039:0.093213998 9348:0.145068 9368:0.093213998 9824:0.181806 9881:0.145068 10676:0.181806 10875:0.093213998 10932:0.093213998 11304:0.093213998 11307:0.093213998 11367:0.093213998 11915:0.093213998 13225:0.093213998 13296:0.093213998 14254:0.145068 14268:0.093213998 14451:0.093213998 15225:0.093213998 15273:0.093213998 15334:0.093213998 15684:0.093213998 16377:0.093213998 16432:0.093213998 16952:0.093213998 17104:0.093213998 17733:0.093213998 17837:0.16858999 17874:0.145068 17946:0.093213998 18154:0.093213998 18469:0.093213998 18475:0.093213998 20189:0.093213998 20649:0.093213998 20682:0.093213998 20967:0.181806 21019:0.145068 21523:0.093213998 22001:0.093213998 22655:0.093213998 22993:0.181806 24156:0.093213998 24210:0.093213998 24403:0.093213998 24569:0.093213998 24922:0.093213998 25162:0.093213998 #
-0.31563879413472689661190884180542 290:0.159566 2778:0.159566 3949:0.24353901 3994:0.159566 4288:0.159566 4722:0.159566 4983:0.30517399 5126:0.31165001 5180:0.159566 7541:0.29595399 7780:0.27844 8183:0.159566 8447:0.159566 14964:0.159566 16388:0.159566 17568:0.159566 18127:0.24353901 18475:0.159566 19632:0.159566 20304:0.159566 20967:0.159566 21703:0.24353901 23177:0.24353901 24878:0.159566 #
